{"learner":{"attributes":{"scikit_learn":"{\"_estimator_type\": \"classifier\"}"},"feature_names":["session_length","avg_dwell_time"],"feature_types":["int","float"],"gradient_booster":{"model":{"gbtree_model_param":{"num_parallel_tree":"1","num_trees":"100"},"iteration_indptr":[0,1,2,3,4,5,6,7,8,9,10,11,12,13,14,15,16,17,18,19,20,21,22,23,24,25,26,27,28,29,30,31,32,33,34,35,36,37,38,39,40,41,42,43,44,45,46,47,48,49,50,51,52,53,54,55,56,57,58,59,60,61,62,63,64,65,66,67,68,69,70,71,72,73,74,75,76,77,78,79,80,81,82,83,84,85,86,87,88,89,90,91,92,93,94,95,96,97,98,99,100],"tree_info":[0,0,0,0,0,0,0,0,0,0,0,0,0,0,0,0,0,0,0,0,0,0,0,0,0,0,0,0,0,0,0,0,0,0,0,0,0,0,0,0,0,0,0,0,0,0,0,0,0,0,0,0,0,0,0,0,0,0,0,0,0,0,0,0,0,0,0,0,0,0,0,0,0,0,0,0,0,0,0,0,0,0,0,0,0,0,0,0,0,0,0,0,0,0,0,0,0,0,0,0],"trees":[{"base_weights":[9.443115E-3,-1.5559404E0,6.538463E-1,-2.0382805E0,-1.238009E0,-7.0887876E-1,8.522815E-1,1.6755548E-1,-2.1785862E0,-1.152744E0,-1.8335571E0,-1.1850207E0,-3.01168E-1,5.171606E-1,9.5239437E-1,-2.3813086E0,-1.8189638E0,-1.3847095E0,-9.9300486E-1,-1.7387644E0,-1.9210656E0,1.4399265E0,-1.3679397E0,-4.7084433E-1,-7.301913E-2,2.857685E-1,6.3788116E-1,6.898826E-1,1.0605005E0,-2.4750972E0,-2.2161264E0,-1.9531467E0,-1.7031571E0,-1.4397933E0,-1.2585398E0,-8.339582E-1,-1.2956383E0,-1.7955929E0,-4.0022722E-1,-2.106038E0,-1.7739881E0,3.8894862E-1,4.6970052E-1,-1.8470019E0,-9.696173E-1,-5.0532454E-1,7.762779E-1,-1.8661563E-1,3.8246262E-1,1.9582564E-1,8.0927557E-1,5.4246986E-1,8.2814527E-1,7.6178074E-1,1.2575588E-1,1.0065287E0,1.2145395E0,-5.3996116E-1,-7.5064933E-1,-6.7290366E-1,-6.364234E-1,-5.769257E-1,-6.26837E-1,-2.5401095E-1,-5.3163135E-1,-4.1685718E-1,-4.9433625E-1,-3.6928844E-1,-5.658674E-1,-3.122867E-1,-2.3185572E-1,-4.8872307E-1,-3.796337E-1,-5.027797E-1,-5.5539954E-1,-6.0231715E-1,-7.149173E-1,-5.6055623E-1,-5.226507E-1,-6.6332066E-1,-4.8151216E-1,-2.2970203E-1,-3.862986E-1,-1.7127961E-1,-1.07395805E-1,2.682568E-1,-6.412067E-1,7.0661525E-3,-9.24964E-2,7.644005E-2,2.3467454E-1,4.3287583E-2,1.0097031E-1,2.1418598E-1,3.5055333E-1,1.2998743E-1,1.762261E-1,2.258998E-1,2.9498667E-1,2.421162E-1,1.6520445E-1,5.0180104E-2,-2.537737E-1,2.5956887E-1,3.174889E-1,3.4829065E-1,3.9187798E-1],"categories":[],"categories_nodes":[],"categories_segments":[],"categories_sizes":[],"default_left":[0,0,0,0,0,0,0,0,0,0,0,0,0,0,0,0,0,0,0,0,0,0,0,0,0,0,0,0,0,0,0,0,0,0,0,0,0,0,0,0,0,0,0,0,0,0,0,0,0,0,0,0,0,0,0,0,0,0,0,0,0,0,0,0,0,0,0,0,0,0,0,0,0,0,0,0,0,0,0,0,0,0,0,0,0,0,0,0,0,0,0,0,0,0,0,0,0,0,0,0,0,0,0,0,0,0,0],"id":0,"left_children":[1,3,5,7,9,11,13,-1,15,17,19,21,23,25,27,29,31,33,35,37,39,41,43,45,47,49,51,53,55,57,59,61,63,65,67,69,71,73,-1,75,77,-1,-1,79,81,83,85,87,89,91,93,95,97,99,101,103,105,-1,-1,-1,-1,-1,-1,-1,-1,-1,-1,-1,-1,-1,-1,-1,-1,-1,-1,-1,-1,-1,-1,-1,-1,-1,-1,-1,-1,-1,-1,-1,-1,-1,-1,-1,-1,-1,-1,-1,-1,-1,-1,-1,-1,-1,-1,-1,-1,-1,-1],"loss_changes":[1.7940492E5,7.950828E3,3.4069125E4,7.5077656E3,1.5853398E3,3.1085015E3,3.6891094E3,0E0,1.4207109E3,1.01202734E3,2.9123047E1,3.5488281E3,3.3398816E2,7.0649854E2,2.4023047E3,1.8811719E2,1.0623828E2,7.568359E1,7.786543E2,4.1049316E1,5.136621E1,6.657959E0,1.3160645E3,2.1316956E2,1.9054762E2,4.0832404E2,3.0133398E2,1.00181836E3,4.9739844E2,1.4102734E2,6.7910156E0,9.336914E0,2.2243945E2,7.87959E1,5.647705E1,1.3354785E2,5.4103516E1,7.9262695E0,0E0,1.9503662E1,1.5771484E-1,0E0,0E0,2.7254688E2,2.4374219E2,4.634619E1,4.7782173E1,7.5392006E1,3.7322365E1,5.3657104E1,4.271057E1,5.4096436E1,6.396753E1,2.089502E2,1.12821884E2,3.24E2,7.491992E1,0E0,0E0,0E0,0E0,0E0,0E0,0E0,0E0,0E0,0E0,0E0,0E0,0E0,0E0,0E0,0E0,0E0,0E0,0E0,0E0,0E0,0E0,0E0,0E0,0E0,0E0,0E0,0E0,0E0,0E0,0E0,0E0,0E0,0E0,0E0,0E0,0E0,0E0,0E0,0E0,0E0,0E0,0E0,0E0,0E0,0E0,0E0,0E0,0E0,0E0],"parents":[2147483647,0,0,1,1,2,2,3,3,4,4,5,5,6,6,8,8,9,9,10,10,11,11,12,12,13,13,14,14,15,15,16,16,17,17,18,18,19,19,20,20,21,21,22,22,23,23,24,24,25,25,26,26,27,27,28,28,29,29,30,30,31,31,32,32,33,33,34,34,35,35,36,36,37,37,39,39,40,40,43,43,44,44,45,45,46,46,47,47,48,48,49,49,50,50,51,51,52,52,53,53,54,54,55,55,56,56],"right_children":[2,4,6,8,10,12,14,-1,16,18,20,22,24,26,28,30,32,34,36,38,40,42,44,46,48,50,52,54,56,58,60,62,64,66,68,70,72,74,-1,76,78,-1,-1,80,82,84,86,88,90,92,94,96,98,100,102,104,106,-1,-1,-1,-1,-1,-1,-1,-1,-1,-1,-1,-1,-1,-1,-1,-1,-1,-1,-1,-1,-1,-1,-1,-1,-1,-1,-1,-1,-1,-1,-1,-1,-1,-1,-1,-1,-1,-1,-1,-1,-1,-1,-1,-1,-1,-1,-1,-1,-1,-1],"split_conditions":[3E0,3.6805E4,4.3093E4,1.255E2,4.252955E5,2.5871E4,8.58435E4,1.6755548E-1,2.1189E4,8.58435E4,5.959837E5,1.255E2,3.6289E4,5.79265E4,4E0,1.3594E4,2.7566E4,6.568486E4,2.06066E5,5.738105E5,7.169245E5,4E0,1.65985E4,1.7E1,7E0,9E0,6E0,4.252955E5,9E0,6.575E2,1.9402E4,2.63E4,2.80205E4,5.79265E4,8.46305E4,1.03482336E5,2.18658E5,4.65475E5,-4.0022722E-1,6.814905E5,7.573575E5,3.8894862E-1,4.6970052E-1,1.02595E4,4E0,3.32188E4,3.42275E4,3.84335E4,4.1894E4,5.39935E4,2E1,6.568486E4,1.1E1,2.7072762E5,8.051065E5,1.346615E5,2.02069E5,-5.3996116E-1,-7.5064933E-1,-6.7290366E-1,-6.364234E-1,-5.769257E-1,-6.26837E-1,-2.5401095E-1,-5.3163135E-1,-4.1685718E-1,-4.9433625E-1,-3.6928844E-1,-5.658674E-1,-3.122867E-1,-2.3185572E-1,-4.8872307E-1,-3.796337E-1,-5.027797E-1,-5.5539954E-1,-6.0231715E-1,-7.149173E-1,-5.6055623E-1,-5.226507E-1,-6.6332066E-1,-4.8151216E-1,-2.2970203E-1,-3.862986E-1,-1.7127961E-1,-1.07395805E-1,2.682568E-1,-6.412067E-1,7.0661525E-3,-9.24964E-2,7.644005E-2,2.3467454E-1,4.3287583E-2,1.0097031E-1,2.1418598E-1,3.5055333E-1,1.2998743E-1,1.762261E-1,2.258998E-1,2.9498667E-1,2.421162E-1,1.6520445E-1,5.0180104E-2,-2.537737E-1,2.5956887E-1,3.174889E-1,3.4829065E-1,3.9187798E-1],"split_indices":[0,1,1,1,1,1,1,0,1,1,1,1,1,1,0,1,1,1,1,1,1,0,1,0,0,0,0,1,0,1,1,1,1,1,1,1,1,1,0,1,1,0,0,1,0,1,1,1,1,1,0,1,0,1,1,1,1,0,0,0,0,0,0,0,0,0,0,0,0,0,0,0,0,0,0,0,0,0,0,0,0,0,0,0,0,0,0,0,0,0,0,0,0,0,0,0,0,0,0,0,0,0,0,0,0,0,0],"split_type":[0,0,0,0,0,0,0,0,0,0,0,0,0,0,0,0,0,0,0,0,0,0,0,0,0,0,0,0,0,0,0,0,0,0,0,0,0,0,0,0,0,0,0,0,0,0,0,0,0,0,0,0,0,0,0,0,0,0,0,0,0,0,0,0,0,0,0,0,0,0,0,0,0,0,0,0,0,0,0,0,0,0,0,0,0,0,0,0,0,0,0,0,0,0,0,0,0,0,0,0,0,0,0,0,0,0,0],"sum_hessian":[1.7784883E5,5.186267E4,1.2598615E5,2.0601824E4,3.1260848E4,1.6013457E4,1.09972695E5,1.0559102E3,1.9545914E4,2.734831E4,3.912537E3,7.3859385E3,8.627519E3,2.5297436E4,8.467526E4,1.2496118E4,7.049795E3,1.1149656E4,1.6198654E4,1.8881187E3,2.0244185E3,4.807108E2,6.9052275E3,4.9471875E3,3.6803313E3,8.674291E3,1.6623145E4,2.4701213E4,5.9974047E4,7.9616104E3,4.5345083E3,3.2584397E3,3.7913555E3,7.7539717E3,3.3956843E3,1.0620756E4,5.577899E3,1.6526057E3,2.3551286E2,8.907914E2,1.1336271E3,2.2984354E2,2.5086726E2,3.1332422E3,3.7719854E3,4.814667E3,1.3252028E2,2.9461548E3,7.341765E2,7.403655E3,1.2706356E3,1.1073829E4,5.549316E3,2.1908602E4,2.7926108E3,4.4418387E4,1.555566E4,3.094502E2,7.65216E3,3.5142676E3,1.0202408E3,2.682059E3,5.763805E2,2.8346582E2,3.5078896E3,6.250894E3,1.5030775E3,3.255605E3,1.4007936E2,2.4170186E3,8.203737E3,4.587422E2,5.1191567E3,5.3504175E2,1.117564E3,6.6354626E2,2.272451E2,2.7094608E2,8.6268097E2,1.247722E3,1.8855201E3,2.3003252E3,1.47166E3,3.3293062E3,1.485361E3,1.2803206E2,4.488209E0,1.0807135E3,1.8654414E3,5.57719E2,1.7645747E2,5.4208115E3,1.9828435E3,1.0065399E3,2.6409567E2,3.2326917E3,7.841137E3,3.7424575E3,1.8068584E3,1.8037402E4,3.8711982E3,2.6789883E3,1.1362255E2,1.1914777E4,3.250361E4,9.828705E3,5.7269546E3],"tree_param":{"num_deleted":"0","num_feature":"2","num_nodes":"107","size_leaf_vector":"1"}},{"base_weights":[1.9361306E-2,-1.0215496E0,4.9778295E-1,-1.3426788E0,-8.117566E-1,-4.408247E-1,6.609069E-1,1.2397111E-1,-1.4291703E0,-7.461605E-1,-1.152228E0,-9.274535E-1,-2.4282244E-1,4.003769E-1,7.4148405E-1,-1.5591155E0,-1.1670836E0,-9.206028E-1,-6.394971E-1,-1.4995496E0,-1.1286674E0,1.1148201E0,-1.1408762E0,-4.2189342E-1,-6.9222495E-2,2.487383E-1,4.9730766E-1,5.178799E-1,8.3683616E-1,-1.6385388E0,-1.4449588E0,-1.2499253E0,-1.1091882E0,-9.0584344E-1,-1.2124835E0,-5.7663506E-1,-8.143231E-1,-3.7199748E-1,-5.3307384E-1,-1.2146613E-1,-1.1645432E0,8.5827464E-1,4.079496E-1,-1.6309569E0,-1.0026224E0,-4.501986E-1,3.055179E-1,-9.532307E-2,6.2566584E-1,1.9027738E-1,6.0536486E-1,4.1740614E-1,6.5665185E-1,5.9561384E-1,1.840239E-1,7.4453735E-1,9.1892225E-1,-3.5180315E-1,-4.9742582E-1,-4.4195595E-1,-4.1411826E-1,-3.595531E-1,-4.0140155E-1,-1.685939E-1,-3.458168E-1,-2.7665117E-1,-7.362378E-2,-4.3842587E-1,-2.4205951E-1,-2.1376297E-1,-1.5495735E-1,-3.9577696E-1,-2.3344035E-1,-3.0655837E-1,-3.6340258E-1,3.1639785E-1,-9.8176874E-2,-3.0960414E-1,-5.1470566E-1,-2.6276147E-1,-3.634041E-1,-1.591322E-1,-1.17027126E-1,1.7978415E-1,-7.4236274E-1,-7.199967E-2,-1.4212208E-2,2.7239951E-1,6.473922E-2,3.472622E-2,8.9700975E-2,2.0067714E-1,1.0425361E-1,9.4261386E-2,1.321713E-1,1.752229E-1,2.4121158E-1,1.9981174E-1,1.6588072E-1,9.3077146E-2,-3.221523E-2,2.2395259E-1,-8.942122E-1,2.5627485E-1,3.0230007E-1],"categories":[],"categories_nodes":[],"categories_segments":[],"categories_sizes":[],"default_left":[0,0,0,0,0,0,0,0,0,0,0,0,0,0,0,0,0,0,0,0,0,0,0,0,0,0,0,0,0,0,0,0,0,0,0,0,0,0,0,0,0,0,0,0,0,0,0,0,0,0,0,0,0,0,0,0,0,0,0,0,0,0,0,0,0,0,0,0,0,0,0,0,0,0,0,0,0,0,0,0,0,0,0,0,0,0,0,0,0,0,0,0,0,0,0,0,0,0,0,0,0,0,0,0,0],"id":1,"left_children":[1,3,5,7,9,11,13,-1,15,17,19,21,23,25,27,29,31,33,35,37,39,41,43,45,47,49,51,53,55,57,59,61,63,65,67,69,71,-1,-1,-1,73,75,-1,77,79,81,83,85,87,89,91,93,95,97,99,101,103,-1,-1,-1,-1,-1,-1,-1,-1,-1,-1,-1,-1,-1,-1,-1,-1,-1,-1,-1,-1,-1,-1,-1,-1,-1,-1,-1,-1,-1,-1,-1,-1,-1,-1,-1,-1,-1,-1,-1,-1,-1,-1,-1,-1,-1,-1,-1,-1],"loss_changes":[8.601024E4,3.6628984E3,1.8117375E4,3.2641367E3,7.338672E2,1.687925E3,2.1159492E3,0E0,6.956758E2,5.1269824E2,4.178076E1,2.209688E3,3.8714514E2,3.499253E2,1.641168E3,1.2174219E2,3.1191406E1,4.398535E1,1.8770215E2,2.1873169E1,1.2881396E2,2.8997314E1,3.0921484E2,1.2636194E2,1.14778404E2,1.9354657E2,1.8468701E2,5.973052E2,4.0825E2,7.149805E1,8.217773E0,1.1015137E1,9.481152E1,1.0722803E2,4.9384033E1,1.0254492E2,8.167456E1,0E0,0E0,0E0,3.0435547E1,5.555609E1,0E0,4.937622E1,9.367651E1,2.8256226E1,1.8949275E2,4.2284073E1,2.631633E1,6.464136E1,2.1200806E1,2.2999268E1,5.140918E1,5.5751953E1,1.6001534E2,1.8883398E2,1.6307812E2,0E0,0E0,0E0,0E0,0E0,0E0,0E0,0E0,0E0,0E0,0E0,0E0,0E0,0E0,0E0,0E0,0E0,0E0,0E0,0E0,0E0,0E0,0E0,0E0,0E0,0E0,0E0,0E0,0E0,0E0,0E0,0E0,0E0,0E0,0E0,0E0,0E0,0E0,0E0,0E0,0E0,0E0,0E0,0E0,0E0,0E0,0E0,0E0],"parents":[2147483647,0,0,1,1,2,2,3,3,4,4,5,5,6,6,8,8,9,9,10,10,11,11,12,12,13,13,14,14,15,15,16,16,17,17,18,18,19,19,20,20,21,21,22,22,23,23,24,24,25,25,26,26,27,27,28,28,29,29,30,30,31,31,32,32,33,33,34,34,35,35,36,36,40,40,41,41,43,43,44,44,45,45,46,46,47,47,48,48,49,49,50,50,51,51,52,52,53,53,54,54,55,55,56,56],"right_children":[2,4,6,8,10,12,14,-1,16,18,20,22,24,26,28,30,32,34,36,38,40,42,44,46,48,50,52,54,56,58,60,62,64,66,68,70,72,-1,-1,-1,74,76,-1,78,80,82,84,86,88,90,92,94,96,98,100,102,104,-1,-1,-1,-1,-1,-1,-1,-1,-1,-1,-1,-1,-1,-1,-1,-1,-1,-1,-1,-1,-1,-1,-1,-1,-1,-1,-1,-1,-1,-1,-1,-1,-1,-1,-1,-1,-1,-1,-1,-1,-1,-1,-1,-1,-1,-1,-1,-1],"split_conditions":[3E0,3.6805E4,4.49785E4,1.255E2,3.607875E5,2.0084E4,8.6999664E4,1.2397111E-1,2.2341E4,7.7672E4,3.7946434E5,6.575E2,3.32188E4,6.11535E4,4E0,1.32585E4,2.7566E4,7.44245E4,2.10099E5,3.700065E5,3.8956434E5,4E0,9.22675E3,1.2E1,1.5E1,9E0,6E0,3.421555E5,6E0,6.575E2,1.9402E4,2.5471666E4,2.80205E4,7.33875E4,7.6603E4,1.03482336E5,2.18658E5,-3.7199748E-1,-5.3307384E-1,-1.2146613E-1,4.65475E5,1.255E2,4.079496E-1,2.4605E3,4E0,2.5871E4,2.9802E4,3.6289E4,3.84335E4,5.47905E4,5.7118E4,6.568486E4,1.1E1,1.28401E5,5.332077E5,8.52342E5,2.02069E5,-3.5180315E-1,-4.9742582E-1,-4.4195595E-1,-4.1411826E-1,-3.595531E-1,-4.0140155E-1,-1.685939E-1,-3.458168E-1,-2.7665117E-1,-7.362378E-2,-4.3842587E-1,-2.4205951E-1,-2.1376297E-1,-1.5495735E-1,-3.9577696E-1,-2.3344035E-1,-3.0655837E-1,-3.6340258E-1,3.1639785E-1,-9.8176874E-2,-3.0960414E-1,-5.1470566E-1,-2.6276147E-1,-3.634041E-1,-1.591322E-1,-1.17027126E-1,1.7978415E-1,-7.4236274E-1,-7.199967E-2,-1.4212208E-2,2.7239951E-1,6.473922E-2,3.472622E-2,8.9700975E-2,2.0067714E-1,1.0425361E-1,9.4261386E-2,1.321713E-1,1.752229E-1,2.4121158E-1,1.9981174E-1,1.6588072E-1,9.3077146E-2,-3.221523E-2,2.2395259E-1,-8.942122E-1,2.5627485E-1,3.0230007E-1],"split_indices":[0,1,1,1,1,1,1,0,1,1,1,1,1,1,0,1,1,1,1,1,1,0,1,0,0,0,0,1,0,1,1,1,1,1,1,1,1,0,0,0,1,1,0,1,0,1,1,1,1,1,1,1,0,1,1,1,1,0,0,0,0,0,0,0,0,0,0,0,0,0,0,0,0,0,0,0,0,0,0,0,0,0,0,0,0,0,0,0,0,0,0,0,0,0,0,0,0,0,0,0,0,0,0,0,0],"split_type":[0,0,0,0,0,0,0,0,0,0,0,0,0,0,0,0,0,0,0,0,0,0,0,0,0,0,0,0,0,0,0,0,0,0,0,0,0,0,0,0,0,0,0,0,0,0,0,0,0,0,0,0,0,0,0,0,0,0,0,0,0,0,0,0,0,0,0,0,0,0,0,0,0,0,0,0,0,0,0,0,0,0,0,0,0,0,0,0,0,0,0,0,0,0,0,0,0,0,0,0,0,0,0,0,0],"sum_hessian":[1.7271128E5,5.4384582E4,1.18326695E5,2.1487846E4,3.289674E4,1.751937E4,1.0080733E5,1.00856506E3,2.0479281E4,2.758528E4,5.3114575E3,5.065714E3,1.2453654E4,2.3814352E4,7.699298E4,1.3687783E4,6.7914976E3,1.0464127E4,1.7121152E4,3.3343536E2,4.978022E3,4.7889273E2,4.586821E3,6.1295254E3,6.324129E3,9.287907E3,1.4526443E4,2.3019018E4,5.3973957E4,8.0639937E3,5.6237896E3,2.7853682E3,4.0061296E3,9.964367E3,4.997597E2,1.2596231E4,4.5249204E3,1.7507228E2,1.583631E2,2.3567421E2,4.742348E3,2.3613983E2,2.427529E2,1.0068725E3,3.5799485E3,5.9003125E3,2.2921301E2,6.0960205E3,2.2810867E2,7.981116E3,1.3067915E3,9.67742E3,4.8490234E3,1.867095E4,4.348067E3,2.5411238E4,2.856272E4,3.2719043E2,7.736803E3,3.8978325E3,1.7259572E3,1.7679603E3,1.0174078E3,2.9625354E2,3.709876E3,9.723586E3,2.4078198E2,3.080813E2,1.916784E2,3.8593994E3,8.736833E3,3.0024207E2,4.2246787E3,1.1769241E3,3.5654238E3,2.0267657E2,3.346327E1,1.2641679E2,8.8045575E2,2.2305894E3,1.3493591E3,2.523592E3,3.3767205E3,2.080168E2,2.1196218E1,1.5164517E3,4.579569E3,1.3434888E2,9.3759796E1,4.736601E3,3.2445151E3,1.0470953E3,2.596961E2,1.776684E3,7.900736E3,3.2524365E3,1.5965868E3,7.039737E3,1.1631213E4,3.0338064E3,1.3142604E3,2.53986E4,1.2640118E1,1.6528312E4,1.2034408E4],"tree_param":{"num_deleted":"0","num_feature":"2","num_nodes":"105","size_leaf_vector":"1"}},{"base_weights":[1.7633969E-2,-7.478614E-1,3.815783E-1,-1.0933471E0,-5.975418E-1,-2.4347377E-1,5.263735E-1,9.133169E-2,-1.1838437E0,-5.62837E-1,-8.83534E-1,-6.818807E-1,-1.1000394E-1,4.103688E-1,6.550725E-1,-1.3126092E0,-1.0379537E0,-7.1421784E-1,-4.7316465E-1,-8.202002E-1,-9.43041E-1,9.440821E-1,-8.322647E-1,-2.6408583E-1,3.7010018E-2,4.2846134E-1,2.9703282E-2,4.4108108E-1,7.408869E-1,-2.5868428E-1,-1.3310534E0,-1.0870643E0,-8.9831066E-1,-8.088742E-1,-6.697897E-1,-4.2201895E-1,-5.950512E-1,-9.520909E-1,-7.076551E-1,-4.044998E-1,-8.997662E-1,7.045843E-1,3.5572803E-1,-1.289979E0,-7.1410656E-1,-2.8164592E-1,1.986E-1,-8.293059E-3,3.1276E-1,2.8054318E-1,4.8774135E-1,8.141808E-2,-6.6299623E-1,2.602262E-1,5.2851E-1,7.1236604E-1,9.163097E-1,-4.1595173E-1,-3.866512E-1,-1.9668624E-1,-3.3208507E-1,-1.7015411E-1,-2.840437E-1,-2.1341893E-1,-2.893052E-1,-1.9097987E-1,-2.3867674E-1,-1.6977566E-1,-1.0787656E-1,-1.6418892E-1,-1.9601741E-1,-2.4282712E-1,-3.559945E-1,-1.6933337E-1,-2.4075122E-1,-3.0346733E-1,-2.4956836E-1,2.6488474E-1,-7.05081E-2,-2.3106973E-1,-4.1042897E-1,-2.3270617E-1,-9.128936E-2,-6.521522E-2,-1.09492674E-1,9.278242E-2,-6.4489377E-1,1.3481789E-2,-5.7761688E-2,6.418622E-2,1.5534182E-1,3.2966066E-2,9.225411E-2,1.2678058E-1,1.7468092E-1,7.9761E-4,8.552201E-2,-1.5874109E-1,-3.552628E-1,-3.0157704E-2,1.1230406E-1,1.3954017E-1,2.1374826E-1,1.8772757E-1,2.3287691E-1,2.753536E-1,-7.084507E-1],"categories":[],"categories_nodes":[],"categories_segments":[],"categories_sizes":[],"default_left":[0,0,0,0,0,0,0,0,0,0,0,0,0,0,0,0,0,0,0,0,0,0,0,0,0,0,0,0,0,0,0,0,0,0,0,0,0,0,0,0,0,0,0,0,0,0,0,0,0,0,0,0,0,0,0,0,0,0,0,0,0,0,0,0,0,0,0,0,0,0,0,0,0,0,0,0,0,0,0,0,0,0,0,0,0,0,0,0,0,0,0,0,0,0,0,0,0,0,0,0,0,0,0,0,0,0,0],"id":2,"left_children":[1,3,5,7,9,11,13,-1,15,17,19,21,23,25,27,29,31,33,35,37,39,41,43,45,47,49,51,53,55,-1,57,59,61,63,65,67,69,71,73,-1,75,77,-1,79,81,83,85,87,89,91,93,95,97,99,101,103,105,-1,-1,-1,-1,-1,-1,-1,-1,-1,-1,-1,-1,-1,-1,-1,-1,-1,-1,-1,-1,-1,-1,-1,-1,-1,-1,-1,-1,-1,-1,-1,-1,-1,-1,-1,-1,-1,-1,-1,-1,-1,-1,-1,-1,-1,-1,-1,-1,-1,-1],"loss_changes":[4.5361473E4,2.7240996E3,9.987689E3,2.0123535E3,3.6238867E2,1.2144692E3,1.3374121E3,0E0,2.7927148E2,4.423037E2,1.4131836E1,1.1852686E3,3.6048096E2,3.245542E2,7.796426E2,6.4728516E1,4.7086426E1,5.0461914E1,1.2742432E2,2.7878052E1,3.4431885E1,2.2928802E1,2.3891187E2,6.318573E1,1.0174387E2,3.9434277E2,7.668935E1,1.9213354E2,1.5101953E2,0E0,1.6045898E1,4.371924E1,2.8841309E1,5.795581E1,3.39812E1,1.2943481E2,1.6501709E1,2.857904E1,1.3697632E1,0E0,1.3114014E1,3.5180748E1,0E0,3.5838623E1,8.8770386E1,4.0009216E1,7.465463E1,6.862485E1,2.3172768E1,5.9218933E1,1.9750537E2,3.1943436E1,9.749947E0,1.6325934E2,9.523804E1,1.4382422E2,2.3489746E1,0E0,0E0,0E0,0E0,0E0,0E0,0E0,0E0,0E0,0E0,0E0,0E0,0E0,0E0,0E0,0E0,0E0,0E0,0E0,0E0,0E0,0E0,0E0,0E0,0E0,0E0,0E0,0E0,0E0,0E0,0E0,0E0,0E0,0E0,0E0,0E0,0E0,0E0,0E0,0E0,0E0,0E0,0E0,0E0,0E0,0E0,0E0,0E0,0E0,0E0],"parents":[2147483647,0,0,1,1,2,2,3,3,4,4,5,5,6,6,8,8,9,9,10,10,11,11,12,12,13,13,14,14,15,15,16,16,17,17,18,18,19,19,20,20,21,21,22,22,23,23,24,24,25,25,26,26,27,27,28,28,30,30,31,31,32,32,33,33,34,34,35,35,36,36,37,37,38,38,40,40,41,41,43,43,44,44,45,45,46,46,47,47,48,48,49,49,50,50,51,51,52,52,53,53,54,54,55,55,56,56],"right_children":[2,4,6,8,10,12,14,-1,16,18,20,22,24,26,28,30,32,34,36,38,40,42,44,46,48,50,52,54,56,-1,58,60,62,64,66,68,70,72,74,-1,76,78,-1,80,82,84,86,88,90,92,94,96,98,100,102,104,106,-1,-1,-1,-1,-1,-1,-1,-1,-1,-1,-1,-1,-1,-1,-1,-1,-1,-1,-1,-1,-1,-1,-1,-1,-1,-1,-1,-1,-1,-1,-1,-1,-1,-1,-1,-1,-1,-1,-1,-1,-1,-1,-1,-1,-1,-1,-1,-1,-1,-1],"split_conditions":[3E0,2.7566E4,5.10565E4,1.255E2,4.252955E5,2.0084E4,5E0,9.133169E-2,1.45685E4,6.647446E4,5.959837E5,6.575E2,3.6289E4,5.145435E5,1.05050664E5,6.575E2,2.38685E4,3.6805E4,2.02069E5,4.969825E5,6.206275E5,4E0,9.22675E3,1.2E1,8E0,9.34545E4,8.051065E5,6.935675E4,1.4E1,-2.5868428E-1,7.1315E3,1.4914E4,2.4277E4,3.269E4,5.79265E4,9.2115664E4,2.96252E5,4.65475E5,5.332077E5,-4.044998E-1,7.169245E5,1.255E2,3.5572803E-1,2.4605E3,6E0,4E0,3.42275E4,5E0,1.4E1,5.6313332E4,4E0,4E0,4E0,6E0,1.1E1,1.87675E5,4.8072866E5,-4.1595173E-1,-3.866512E-1,-1.9668624E-1,-3.3208507E-1,-1.7015411E-1,-2.840437E-1,-2.1341893E-1,-2.893052E-1,-1.9097987E-1,-2.3867674E-1,-1.6977566E-1,-1.0787656E-1,-1.6418892E-1,-1.9601741E-1,-2.4282712E-1,-3.559945E-1,-1.6933337E-1,-2.4075122E-1,-3.0346733E-1,-2.4956836E-1,2.6488474E-1,-7.05081E-2,-2.3106973E-1,-4.1042897E-1,-2.3270617E-1,-9.128936E-2,-6.521522E-2,-1.09492674E-1,9.278242E-2,-6.4489377E-1,1.3481789E-2,-5.7761688E-2,6.418622E-2,1.5534182E-1,3.2966066E-2,9.225411E-2,1.2678058E-1,1.7468092E-1,7.9761E-4,8.552201E-2,-1.5874109E-1,-3.552628E-1,-3.0157704E-2,1.1230406E-1,1.3954017E-1,2.1374826E-1,1.8772757E-1,2.3287691E-1,2.753536E-1,-7.084507E-1],"split_indices":[0,1,1,1,1,1,0,0,1,1,1,1,1,1,1,1,1,1,1,1,1,0,1,0,0,1,1,1,0,0,1,1,1,1,1,1,1,1,1,0,1,1,0,1,0,0,1,0,0,1,0,0,0,0,0,1,1,0,0,0,0,0,0,0,0,0,0,0,0,0,0,0,0,0,0,0,0,0,0,0,0,0,0,0,0,0,0,0,0,0,0,0,0,0,0,0,0,0,0,0,0,0,0,0,0,0,0],"split_type":[0,0,0,0,0,0,0,0,0,0,0,0,0,0,0,0,0,0,0,0,0,0,0,0,0,0,0,0,0,0,0,0,0,0,0,0,0,0,0,0,0,0,0,0,0,0,0,0,0,0,0,0,0,0,0,0,0,0,0,0,0,0,0,0,0,0,0,0,0,0,0,0,0,0,0,0,0,0,0,0,0,0,0,0,0,0,0,0,0,0,0,0,0,0,0,0,0,0,0,0,0,0,0,0,0,0,0],"sum_hessian":[1.6281867E5,5.2465438E4,1.10353234E5,1.5904713E4,3.6560727E4,2.0755443E4,8.959779E4,9.6695917E2,1.4937753E4,3.2606887E4,3.95384E3,4.843136E3,1.5912307E4,4.712509E4,4.24727E4,7.9303057E3,7.0074473E3,1.2127243E4,2.0479643E4,1.922496E3,2.031344E3,4.0956903E2,4.433567E3,7.7690015E3,8.143305E3,4.49868E4,2.1382893E3,1.2158862E4,3.0313838E4,3.139022E2,7.616404E3,5.179206E3,1.8282413E3,3.8683428E3,8.2589E3,1.4429317E4,6.050326E3,8.817366E2,1.0407594E3,1.9306172E2,1.8382823E3,2.0767891E2,2.0189012E2,9.076496E2,3.5259175E3,7.4853066E3,2.83695E2,6.9950547E3,1.1482504E3,1.2872495E4,3.2114305E4,1.9905625E3,1.4772678E2,3.9636519E3,8.195211E3,2.6078895E4,4.2349434E3,3.2783489E3,4.3380547E3,2.2969656E2,4.9495093E3,2.3519728E2,1.5930441E3,2.3810754E3,1.4872673E3,6.5395938E3,1.7193066E3,4.363511E3,1.0065806E4,3.3326963E3,2.7176296E3,5.5102924E2,3.307074E2,4.1743466E2,6.233247E2,6.8919867E2,1.1490836E3,1.7459596E2,3.3082947E1,1.2001332E2,7.876363E2,3.0645276E3,4.613899E2,4.2282153E3,3.2570913E3,2.7175525E2,1.193975E1,5.4276523E3,1.5674021E3,7.762437E2,3.7200662E2,1.757426E3,1.1115069E4,1.9015924E4,1.3098381E4,1.436168E3,5.543946E2,1.1914329E2,2.8583488E1,9.525675E2,3.0110842E3,6.0981436E3,2.0970671E3,1.1075758E4,1.5003136E4,4.2336797E3,1.2635328E0],"tree_param":{"num_deleted":"0","num_feature":"2","num_nodes":"107","size_leaf_vector":"1"}},{"base_weights":[1.4036862E-2,-5.640731E-1,2.9082465E-1,-9.0071964E-1,-4.325711E-1,-1.5835324E-1,4.095531E-1,6.674293E-2,-9.8156774E-1,-4.045554E-1,-6.7566246E-1,-4.2917413E-1,-2.460503E-2,3.324632E-1,5.5813164E-1,-1.1415007E0,-8.370508E-1,-5.2712286E-1,-3.3566236E-1,-6.192691E-1,-7.2981143E-1,8.0960786E-1,-4.9253377E-1,-1.0206428E-1,9.7550444E-2,2.0396145E-1,3.774855E-1,4.398404E-1,6.4988E-1,-1.966858E-1,-1.1656908E0,-9.1827136E-1,-7.3123497E-1,-5.8372283E-1,-4.5944348E-1,-2.800601E-1,-4.0996605E-1,-6.6612446E-1,-9.028024E-2,-3.321956E-1,-6.916881E-1,5.794528E-1,3.1800526E-1,-1.0292071E0,-4.0097967E-1,-1.4405324E-1,1.2342606E-1,6.861506E-2,3.1550276E-1,1.1847778E-1,2.319294E-1,2.8866753E-1,4.630204E-1,3.975142E-1,7.937411E-1,5.95776E-1,7.4319845E-1,-3.661765E-1,-3.3843872E-1,-2.4894847E-1,-2.8846467E-1,-2.1175177E-1,-2.5511202E-1,-1.6334766E-1,-2.6674712E-1,-1.1990706E-1,-1.8303847E-1,-1.1417536E-1,-5.186027E-2,-2.0641063E-1,-1.1746726E-1,-2.7271837E-1,-1.917355E-1,-2.3178734E-1,-1.8125418E-1,2.228485E-1,-5.062974E-2,-3.3915406E-1,-1.7862436E-1,-7.433183E-2,-1.9667287E-1,-6.7152925E-2,-2.6473768E-2,1.8943329E-1,-2.2164641E-2,3.8724836E-2,-3.5185907E-2,7.528548E-2,2.1642162E-1,4.4779144E-2,-2.1531696E-2,7.234601E-2,-2.2656428E-2,1.1062406E-1,2.4573343E-2,1.4089032E-1,-1.4976215E-1,7.208046E-2,1.3305001E-1,1.5517756E-1,2.5950068E-1,1.5320605E-1,2.0154677E-1,2.236373E-1,-8.512595E-1],"categories":[],"categories_nodes":[],"categories_segments":[],"categories_sizes":[],"default_left":[0,0,0,0,0,0,0,0,0,0,0,0,0,0,0,0,0,0,0,0,0,0,0,0,0,0,0,0,0,0,0,0,0,0,0,0,0,0,0,0,0,0,0,0,0,0,0,0,0,0,0,0,0,0,0,0,0,0,0,0,0,0,0,0,0,0,0,0,0,0,0,0,0,0,0,0,0,0,0,0,0,0,0,0,0,0,0,0,0,0,0,0,0,0,0,0,0,0,0,0,0,0,0,0,0],"id":3,"left_children":[1,3,5,7,9,11,13,-1,15,17,19,21,23,25,27,29,31,33,35,37,39,41,43,45,47,49,51,53,55,-1,57,59,61,63,65,67,69,71,-1,-1,73,75,-1,77,79,81,83,85,87,89,91,93,95,97,99,101,103,-1,-1,-1,-1,-1,-1,-1,-1,-1,-1,-1,-1,-1,-1,-1,-1,-1,-1,-1,-1,-1,-1,-1,-1,-1,-1,-1,-1,-1,-1,-1,-1,-1,-1,-1,-1,-1,-1,-1,-1,-1,-1,-1,-1,-1,-1,-1,-1],"loss_changes":[2.4464625E4,2.1910059E3,5.5138584E3,1.2627988E3,2.4216309E2,7.829505E2,9.36458E2,0E0,2.988291E2,2.693745E2,1.0776733E1,5.6127783E2,1.3693329E2,3.1142676E2,3.0287598E2,7.156738E1,5.791992E1,4.3725586E1,8.432495E1,2.6764954E1,2.6151245E1,1.9447128E1,3.336482E2,8.386692E1,3.5394577E1,3.3377075E1,3.027705E2,1.825039E2,7.89751E1,0E0,1.0708984E1,1.3949707E1,8.371704E0,7.441284E1,4.68927E1,1.2593683E2,4.4499146E1,9.7526245E0,0E0,0E0,1.1583557E1,2.2566906E1,0E0,4.2841797E1,2.2645044E2,3.3226242E1,1.3944997E2,5.5758324E1,1.7056847E1,2.0196594E1,2.987091E1,3.2387244E2,1.2948682E2,7.873462E1,2.5220093E1,6.411743E1,4.8782227E1,0E0,0E0,0E0,0E0,0E0,0E0,0E0,0E0,0E0,0E0,0E0,0E0,0E0,0E0,0E0,0E0,0E0,0E0,0E0,0E0,0E0,0E0,0E0,0E0,0E0,0E0,0E0,0E0,0E0,0E0,0E0,0E0,0E0,0E0,0E0,0E0,0E0,0E0,0E0,0E0,0E0,0E0,0E0,0E0,0E0,0E0,0E0,0E0],"parents":[2147483647,0,0,1,1,2,2,3,3,4,4,5,5,6,6,8,8,9,9,10,10,11,11,12,12,13,13,14,14,15,15,16,16,17,17,18,18,19,19,20,20,21,21,22,22,23,23,24,24,25,25,26,26,27,27,28,28,30,30,31,31,32,32,33,33,34,34,35,35,36,36,37,37,40,40,41,41,43,43,44,44,45,45,46,46,47,47,48,48,49,49,50,50,51,51,52,52,53,53,54,54,55,55,56,56],"right_children":[2,4,6,8,10,12,14,-1,16,18,20,22,24,26,28,30,32,34,36,38,40,42,44,46,48,50,52,54,56,-1,58,60,62,64,66,68,70,72,-1,-1,74,76,-1,78,80,82,84,86,88,90,92,94,96,98,100,102,104,-1,-1,-1,-1,-1,-1,-1,-1,-1,-1,-1,-1,-1,-1,-1,-1,-1,-1,-1,-1,-1,-1,-1,-1,-1,-1,-1,-1,-1,-1,-1,-1,-1,-1,-1,-1,-1,-1,-1,-1,-1,-1,-1,-1,-1,-1,-1,-1],"split_conditions":[3E0,2.7566E4,5.32945E4,1.255E2,4.252955E5,2.5871E4,6E0,6.674293E-2,1.3594E4,6.568486E4,5.959837E5,6.575E2,4.3093E4,9.34545E4,1.346615E5,6.575E2,2.1189E4,4.4334E4,1.5679725E5,5.738105E5,6.206275E5,4E0,1.02595E4,7E0,9E0,6.2119E4,4E0,2E1,1E1,-1.966858E-1,6.42E3,1.59265E4,2.63E4,4.1894E4,5.79265E4,1.03482336E5,1.6541067E5,4.375135E5,-9.028024E-2,-3.321956E-1,7.573575E5,1.255E2,3.1800526E-1,5E0,4E0,3.32188E4,2.9802E4,5E0,5.24865E4,5E0,9.2115664E4,2.89341E5,6.814905E5,7.03455E4,7.6603E4,2.27714E5,5.53135E5,-3.661765E-1,-3.3843872E-1,-2.4894847E-1,-2.8846467E-1,-2.1175177E-1,-2.5511202E-1,-1.6334766E-1,-2.6674712E-1,-1.1990706E-1,-1.8303847E-1,-1.1417536E-1,-5.186027E-2,-2.0641063E-1,-1.1746726E-1,-2.7271837E-1,-1.917355E-1,-2.3178734E-1,-1.8125418E-1,2.228485E-1,-5.062974E-2,-3.3915406E-1,-1.7862436E-1,-7.433183E-2,-1.9667287E-1,-6.7152925E-2,-2.6473768E-2,1.8943329E-1,-2.2164641E-2,3.8724836E-2,-3.5185907E-2,7.528548E-2,2.1642162E-1,4.4779144E-2,-2.1531696E-2,7.234601E-2,-2.2656428E-2,1.1062406E-1,2.4573343E-2,1.4089032E-1,-1.4976215E-1,7.208046E-2,1.3305001E-1,1.5517756E-1,2.5950068E-1,1.5320605E-1,2.0154677E-1,2.236373E-1,-8.512595E-1],"split_indices":[0,1,1,1,1,1,0,0,1,1,1,1,1,1,1,1,1,1,1,1,1,0,1,0,0,1,0,0,0,0,1,1,1,1,1,1,1,1,0,0,1,1,0,0,0,1,1,0,1,0,1,1,1,1,1,1,1,0,0,0,0,0,0,0,0,0,0,0,0,0,0,0,0,0,0,0,0,0,0,0,0,0,0,0,0,0,0,0,0,0,0,0,0,0,0,0,0,0,0,0,0,0,0,0,0],"split_type":[0,0,0,0,0,0,0,0,0,0,0,0,0,0,0,0,0,0,0,0,0,0,0,0,0,0,0,0,0,0,0,0,0,0,0,0,0,0,0,0,0,0,0,0,0,0,0,0,0,0,0,0,0,0,0,0,0,0,0,0,0,0,0,0,0,0,0,0,0,0,0,0,0,0,0,0,0,0,0,0,0,0,0,0,0,0,0,0,0,0,0,0,0,0,0,0,0,0,0,0,0,0,0,0,0],"sum_hessian":[1.5288872E5,4.9500004E4,1.0338872E5,1.3902811E4,3.5597195E4,2.1614732E4,8.1773984E4,9.3341565E2,1.2969395E4,3.1921035E4,3.6761594E3,7.1449756E3,1.4469757E4,5.3841547E4,2.7932438E4,6.1530654E3,6.816329E3,1.1483723E4,2.0437312E4,1.8068519E3,1.8693075E3,3.470874E2,6.797888E3,8.854958E3,5.6147983E3,1.3971088E4,3.9870457E4,1.220383E4,1.5728607E4,2.9314136E2,5.8599243E3,3.8519946E3,2.9643345E3,6.249592E3,5.234131E3,1.1692475E4,8.744839E3,1.5740732E3,2.3277866E2,1.6888782E2,1.7004197E3,1.8258499E2,1.645024E2,9.891911E2,5.8086973E3,7.4652095E3,1.3897488E3,4.9579014E3,6.568971E2,3.4454258E3,1.0525662E4,1.9561992E4,2.0308467E4,1.0902075E4,1.3017548E3,9.960887E3,5.76772E3,2.3678125E3,3.4921116E3,1.2722222E3,2.5797725E3,2.4491868E3,5.151477E2,5.540713E3,7.0887866E2,3.7505295E3,1.4836016E3,6.032598E3,5.6598765E3,5.407143E2,8.204124E3,1.5420868E2,1.4198646E3,8.7931067E2,8.211091E2,1.498681E2,3.2716892E1,8.006126E2,1.8857848E2,3.6276704E3,2.1810269E3,3.0711956E3,4.394014E3,3.8815317E2,1.00159564E3,3.741287E3,1.2166143E3,5.6816016E2,8.873693E1,2.9657302E3,4.7969543E2,1.0219285E4,3.0637683E2,1.4100074E4,5.461918E3,2.0170336E4,1.3813081E2,2.4682505E3,8.433824E3,2.6845364E2,1.0333011E3,4.704591E3,5.2562964E3,5.7648745E3,2.8454313E0],"tree_param":{"num_deleted":"0","num_feature":"2","num_nodes":"105","size_leaf_vector":"1"}},{"base_weights":[1.0488959E-2,-4.2754143E-1,2.1929641E-1,-7.864819E-1,-3.2327574E-1,-1.0986586E-1,3.1307498E-1,4.835014E-2,-8.7629133E-1,-4.4361475E-1,-2.854649E-1,-4.405258E-1,-3.923348E-2,2.304542E-1,4.1267636E-1,-1.0160543E0,-7.288638E-1,-5.03246E-1,-3.8396257E-1,-2.4435759E-1,-4.9492428E-1,6.2533844E-1,-5.417818E-1,-1.4399411E-1,2.2086607E-2,2.5038537E-1,5.6946725E-2,2.5568426E-1,4.8415437E-1,-1.5030307E-1,-1.0462065E0,-7.9129237E-1,-6.409019E-1,-4.5963418E-1,-1.0873649E0,-3.0793363E-1,-4.8833978E-1,-3.0907276E-1,-2.0805909E-1,-8.4778446E-1,-4.6958485E-1,8.0246246E-1,1.6137464E-1,-1.0112056E0,-4.3978053E-1,-1.0437912E-1,-2.7767205E-1,9.545864E-3,3.6641544E-1,1.353905E-1,2.851423E-1,8.053294E-2,-3.6484304E-1,1.987346E-1,4.357867E-1,4.4372687E-1,5.9430856E-1,-3.627385E-1,-3.0865753E-1,-2.0828237E-1,-2.6225322E-1,-1.778975E-1,-2.659599E-1,-1.5436654E-1,-1.09289326E-1,-4.249417E-1,-2.3846732E-1,-1.0631893E-1,4.2339694E-2,-2.031013E-1,-1.14009775E-1,-6.415902E-2,-1.01613596E-1,1.1543629E-1,-6.557158E-2,-1.865833E-1,-3.3131495E-1,8.026617E-3,-1.4947724E-1,1.8595915E-1,3.0359063E-1,1.3969119E-2,2.6405054E-1,-3.4261045E-1,-1.4352266E-1,-1.4446154E-1,6.50822E-2,-4.1382182E-2,6.3763276E-2,-6.573677E-2,-5.7610244E-1,-1.3802221E-2,1.7756568E-2,1.1581115E-1,-7.1249366E-1,3.204857E-2,5.6412708E-2,7.64254E-2,1.00035384E-1,4.086663E-3,6.358355E-2,-6.090803E-2,-1.330391E-1,2.0091996E-2,7.6075464E-2,1.05303146E-1,1.5280057E-1,1.13022275E-1,1.5413223E-1,1.6640651E-1,2.2087596E-1],"categories":[],"categories_nodes":[],"categories_segments":[],"categories_sizes":[],"default_left":[0,0,0,0,0,0,0,0,0,0,0,0,0,0,0,0,0,0,0,0,0,0,0,0,0,0,0,0,0,0,0,0,0,0,0,0,0,0,0,0,0,0,0,0,0,0,0,0,0,0,0,0,0,0,0,0,0,0,0,0,0,0,0,0,0,0,0,0,0,0,0,0,0,0,0,0,0,0,0,0,0,0,0,0,0,0,0,0,0,0,0,0,0,0,0,0,0,0,0,0,0,0,0,0,0,0,0,0,0,0,0],"id":4,"left_children":[1,3,5,7,9,11,13,-1,15,17,19,21,23,25,27,29,31,33,35,37,39,41,43,45,47,49,51,53,55,-1,57,59,61,63,65,67,69,71,73,75,77,79,81,83,85,87,89,91,93,95,97,99,101,103,105,107,109,-1,-1,-1,-1,-1,-1,-1,-1,-1,-1,-1,-1,-1,-1,-1,-1,-1,-1,-1,-1,-1,-1,-1,-1,-1,-1,-1,-1,-1,-1,-1,-1,-1,-1,-1,-1,-1,-1,-1,-1,-1,-1,-1,-1,-1,-1,-1,-1,-1,-1,-1,-1,-1,-1],"loss_changes":[1.3200638E4,1.7433955E3,3.016976E3,8.926299E2,1.6415405E2,5.0613074E2,6.2585596E2,0E0,1.9663281E2,3.0505493E1,2.364519E2,4.1200635E2,1.147235E2,1.4377417E2,3.8687354E2,7.580029E1,2.511084E1,1.0936243E2,3.41203E1,5.3893433E1,3.9896606E1,2.710373E1,1.6637512E2,3.4889175E1,4.864266E1,1.4902246E2,4.2662613E1,1.1060034E2,1.05262695E2,0E0,1.1875488E1,2.1300537E1,2.2326172E1,2.083368E1,2.7643738E1,5.2238983E1,3.689679E1,2.3214172E1,9.181946E1,1.6738785E1,5.988318E1,8.537933E0,7.6182E0,4.275E1,7.864093E1,5.4147472E1,1.444932E2,2.998204E1,2.2210209E1,1.2999924E1,4.1959473E1,3.569006E1,2.7995129E0,5.925177E1,1.5981201E1,8.116235E1,3.5354004E1,0E0,0E0,0E0,0E0,0E0,0E0,0E0,0E0,0E0,0E0,0E0,0E0,0E0,0E0,0E0,0E0,0E0,0E0,0E0,0E0,0E0,0E0,0E0,0E0,0E0,0E0,0E0,0E0,0E0,0E0,0E0,0E0,0E0,0E0,0E0,0E0,0E0,0E0,0E0,0E0,0E0,0E0,0E0,0E0,0E0,0E0,0E0,0E0,0E0,0E0,0E0,0E0,0E0,0E0],"parents":[2147483647,0,0,1,1,2,2,3,3,4,4,5,5,6,6,8,8,9,9,10,10,11,11,12,12,13,13,14,14,15,15,16,16,17,17,18,18,19,19,20,20,21,21,22,22,23,23,24,24,25,25,26,26,27,27,28,28,30,30,31,31,32,32,33,33,34,34,35,35,36,36,37,37,38,38,39,39,40,40,41,41,42,42,43,43,44,44,45,45,46,46,47,47,48,48,49,49,50,50,51,51,52,52,53,53,54,54,55,55,56,56],"right_children":[2,4,6,8,10,12,14,-1,16,18,20,22,24,26,28,30,32,34,36,38,40,42,44,46,48,50,52,54,56,-1,58,60,62,64,66,68,70,72,74,76,78,80,82,84,86,88,90,92,94,96,98,100,102,104,106,108,110,-1,-1,-1,-1,-1,-1,-1,-1,-1,-1,-1,-1,-1,-1,-1,-1,-1,-1,-1,-1,-1,-1,-1,-1,-1,-1,-1,-1,-1,-1,-1,-1,-1,-1,-1,-1,-1,-1,-1,-1,-1,-1,-1,-1,-1,-1,-1,-1,-1,-1,-1,-1,-1,-1],"split_conditions":[3E0,2.38685E4,5.39935E4,1.255E2,4.8240332E4,1.9027334E4,5E0,4.835014E-2,1.32585E4,3.4738E4,3.607875E5,1.27E3,3.32188E4,4.1206566E5,1.08276664E5,6.575E2,1.9402E4,3.37275E4,4.1894E4,9.2115664E4,3.7946434E5,1.255E2,9.22675E3,2.9802E4,1.5E1,8.34874E4,7.573575E5,1.1E1,1E1,-1.5030307E-1,2.4605E3,1.59265E4,2.31035E4,2.9802E4,3.42275E4,4.12955E4,4.4334E4,5.5552168E4,9.34545E4,3.700065E5,3.8956434E5,4E0,8E0,5E0,8E0,8E0,9E0,4.3093E4,4.5E1,4E0,4E0,4E0,8.051065E5,6.935675E4,8.1207E4,2.1426425E5,1.9E1,-3.627385E-1,-3.0865753E-1,-2.0828237E-1,-2.6225322E-1,-1.778975E-1,-2.659599E-1,-1.5436654E-1,-1.09289326E-1,-4.249417E-1,-2.3846732E-1,-1.0631893E-1,4.2339694E-2,-2.031013E-1,-1.14009775E-1,-6.415902E-2,-1.01613596E-1,1.1543629E-1,-6.557158E-2,-1.865833E-1,-3.3131495E-1,8.026617E-3,-1.4947724E-1,1.8595915E-1,3.0359063E-1,1.3969119E-2,2.6405054E-1,-3.4261045E-1,-1.4352266E-1,-1.4446154E-1,6.50822E-2,-4.1382182E-2,6.3763276E-2,-6.573677E-2,-5.7610244E-1,-1.3802221E-2,1.7756568E-2,1.1581115E-1,-7.1249366E-1,3.204857E-2,5.6412708E-2,7.64254E-2,1.00035384E-1,4.086663E-3,6.358355E-2,-6.090803E-2,-1.330391E-1,2.0091996E-2,7.6075464E-2,1.05303146E-1,1.5280057E-1,1.13022275E-1,1.5413223E-1,1.6640651E-1,2.2087596E-1],"split_indices":[0,1,1,1,1,1,0,0,1,1,1,1,1,1,1,1,1,1,1,1,1,1,1,1,0,1,1,0,0,0,1,1,1,1,1,1,1,1,1,1,1,0,0,0,0,0,0,1,0,0,0,0,1,1,1,1,0,0,0,0,0,0,0,0,0,0,0,0,0,0,0,0,0,0,0,0,0,0,0,0,0,0,0,0,0,0,0,0,0,0,0,0,0,0,0,0,0,0,0,0,0,0,0,0,0,0,0,0,0,0,0],"split_type":[0,0,0,0,0,0,0,0,0,0,0,0,0,0,0,0,0,0,0,0,0,0,0,0,0,0,0,0,0,0,0,0,0,0,0,0,0,0,0,0,0,0,0,0,0,0,0,0,0,0,0,0,0,0,0,0,0,0,0,0,0,0,0,0,0,0,0,0,0,0,0,0,0,0,0,0,0,0,0,0,0,0,0,0,0,0,0,0,0,0,0,0,0,0,0,0,0,0,0,0,0,0,0,0,0,0,0,0,0,0,0],"sum_hessian":[1.44324E5,4.658928E4,9.773473E4,1.0485571E4,3.610371E4,2.1670658E4,7.606407E4,9.076331E2,9.577938E3,8.629191E3,2.7474518E4,3.8133804E3,1.7857277E4,4.157791E4,3.4486156E4,4.9137524E3,4.664186E3,4.311633E3,4.317558E3,2.296893E4,4.5055884E3,3.3038885E2,3.4829915E3,6.592741E3,1.1264537E4,3.7293484E4,4.2844253E3,1.0790597E4,2.369556E4,2.7273053E2,4.641022E3,2.7233586E3,1.9408274E3,4.0137432E3,2.9788965E2,2.5002866E3,1.8172717E3,8.251009E3,1.4717921E4,2.997002E2,4.205888E3,2.3857881E2,9.181005E1,6.2013434E2,2.8628572E3,5.087006E3,1.5057354E3,1.0869682E4,3.9485513E2,8.656836E3,2.8636648E4,4.058297E3,2.2612831E2,8.199851E3,2.590746E3,1.7337559E4,6.358003E3,4.4001288E2,4.2010093E3,1.259028E3,1.4643307E3,1.6269125E3,3.1391492E2,2.5438801E3,1.4698629E3,1.3835832E2,1.5953133E2,2.2660408E3,2.3424583E2,6.60854E2,1.1564177E3,1.9607502E3,6.290259E3,2.5582144E2,1.44621E4,1.6122505E2,1.3847516E2,2.2970041E2,3.9761875E3,1.2959062E2,1.089882E2,8.008334E1,1.1726707E1,4.9696112E2,1.23173225E2,2.6919546E3,1.7090244E2,4.6003984E3,4.866073E2,1.455008E3,5.0727306E1,5.1295117E3,5.74017E3,3.929021E2,1.9530399E0,5.6142925E3,3.042543E3,1.7582096E4,1.1054553E4,2.6898293E3,1.3684678E3,7.511323E1,1.5101508E2,2.410814E3,5.789036E3,1.2061924E3,1.3845538E3,8.865694E3,8.471863E3,4.9744272E3,1.3835754E3],"tree_param":{"num_deleted":"0","num_feature":"2","num_nodes":"111","size_leaf_vector":"1"}},{"base_weights":[7.338171E-3,-3.2251197E-1,1.6320683E-1,-6.639227E-1,-2.348611E-1,-7.911002E-2,2.3505752E-1,3.4749717E-2,-7.49255E-1,-3.22088E-1,-2.016116E-1,-3.3773267E-1,-2.7583968E-2,1.817525E-1,3.4709412E-1,-9.0600085E-1,-5.8775437E-1,-3.8152134E-1,-2.7939662E-1,-1.6002809E-1,-3.4547845E-1,5.8622646E-1,-4.0933177E-1,-9.377993E-2,2.1921128E-2,1.0173025E-1,2.108674E-1,2.6660788E-1,4.3563852E-1,-1.14061736E-1,-9.406487E-1,-6.7508805E-1,-5.2835506E-1,-3.4514907E-1,-9.165881E-1,-2.691862E-1,-1.8653214E-1,2.4340783E-1,-1.6935569E-1,-3.7029076E-1,-3.2273722E-1,3.6607957E-1,8.771962E-1,-8.354043E-1,-3.243162E-1,-9.89405E-2,3.5288274E-1,-4.936655E-3,1.9410878E-1,1.0736131E-1,-1.3849062E-1,2.2609213E-1,-1.0071364E-2,2.3602842E-1,5.298222E-1,3.8101435E-1,5.38079E-1,-3.0659094E-1,-2.6614937E-1,-1.6151163E-1,-2.6824412E-1,-3.8016766E-2,-1.6585386E-1,-9.799063E-2,-1.6684887E-1,-3.8031718E-1,-1.9016443E-1,-5.5725288E-2,-8.983976E-2,1.0287878E-1,3.865119E-2,-1.0651475E-1,-4.5394838E-2,-6.928778E-2,-1.2533306E-1,1.5272595E-1,-4.0255398E-2,2.8370535E-1,1.7706537E-1,-6.021619E-2,-2.8812316E-1,-5.669899E-2,-1.7070428E-1,-2.829394E-2,-1.7058659E-1,-5.2371204E-1,1.4951892E-1,9.999693E-2,-5.277654E-3,-1.9478248E-1,6.495635E-2,1.9652959E-2,3.9440174E-2,5.0316923E-3,-9.9735595E-2,5.198759E-2,8.343527E-2,3.4410134E-3,-8.7157644E-2,3.590139E-2,7.889825E-2,1.03720136E-1,1.7670132E-1,1.1531312E-1,-5.034318E-1,1.6225512E-1,-5.8866024E-1],"categories":[],"categories_nodes":[],"categories_segments":[],"categories_sizes":[],"default_left":[0,0,0,0,0,0,0,0,0,0,0,0,0,0,0,0,0,0,0,0,0,0,0,0,0,0,0,0,0,0,0,0,0,0,0,0,0,0,0,0,0,0,0,0,0,0,0,0,0,0,0,0,0,0,0,0,0,0,0,0,0,0,0,0,0,0,0,0,0,0,0,0,0,0,0,0,0,0,0,0,0,0,0,0,0,0,0,0,0,0,0,0,0,0,0,0,0,0,0,0,0,0,0,0,0,0,0],"id":5,"left_children":[1,3,5,7,9,11,13,-1,15,17,19,21,23,25,27,29,31,33,35,37,39,41,43,45,47,49,51,53,55,-1,57,59,61,63,65,67,-1,69,71,-1,73,75,77,79,81,83,85,87,89,91,93,95,97,99,101,103,105,-1,-1,-1,-1,-1,-1,-1,-1,-1,-1,-1,-1,-1,-1,-1,-1,-1,-1,-1,-1,-1,-1,-1,-1,-1,-1,-1,-1,-1,-1,-1,-1,-1,-1,-1,-1,-1,-1,-1,-1,-1,-1,-1,-1,-1,-1,-1,-1,-1,-1],"loss_changes":[7.064956E3,1.3194414E3,1.6247446E3,5.994485E2,1.0170508E2,2.8440002E2,4.2978735E2,0E0,2.0500635E2,2.4461182E1,1.519508E2,2.3480151E2,5.832708E1,1.1361365E2,1.6524658E2,7.4671875E1,2.0403442E1,7.840399E1,1.9544556E1,7.422299E1,1.14744385E2,1.6039413E1,1.1894714E2,1.7588844E1,4.709592E1,1.7618164E1,1.2029346E2,9.7729675E1,6.1611572E1,0E0,1.5895752E1,4.7928345E1,2.3404297E1,1.4620758E1,2.4694077E1,1.378186E1,0E0,5.039875E0,6.449121E1,0E0,4.8363464E1,1.0593203E1,1.5899506E0,4.3193054E1,9.079956E1,1.631041E1,2.7498716E1,3.7722298E1,2.611472E1,1.2820114E1,8.994923E0,9.185339E1,1.3937003E1,3.414972E1,1.3573853E1,5.055896E1,2.7666138E1,0E0,0E0,0E0,0E0,0E0,0E0,0E0,0E0,0E0,0E0,0E0,0E0,0E0,0E0,0E0,0E0,0E0,0E0,0E0,0E0,0E0,0E0,0E0,0E0,0E0,0E0,0E0,0E0,0E0,0E0,0E0,0E0,0E0,0E0,0E0,0E0,0E0,0E0,0E0,0E0,0E0,0E0,0E0,0E0,0E0,0E0,0E0,0E0,0E0,0E0],"parents":[2147483647,0,0,1,1,2,2,3,3,4,4,5,5,6,6,8,8,9,9,10,10,11,11,12,12,13,13,14,14,15,15,16,16,17,17,18,18,19,19,20,20,21,21,22,22,23,23,24,24,25,25,26,26,27,27,28,28,30,30,31,31,32,32,33,33,34,34,35,35,37,37,38,38,40,40,41,41,42,42,43,43,44,44,45,45,46,46,47,47,48,48,49,49,50,50,51,51,52,52,53,53,54,54,55,55,56,56],"right_children":[2,4,6,8,10,12,14,-1,16,18,20,22,24,26,28,30,32,34,36,38,40,42,44,46,48,50,52,54,56,-1,58,60,62,64,66,68,-1,70,72,-1,74,76,78,80,82,84,86,88,90,92,94,96,98,100,102,104,106,-1,-1,-1,-1,-1,-1,-1,-1,-1,-1,-1,-1,-1,-1,-1,-1,-1,-1,-1,-1,-1,-1,-1,-1,-1,-1,-1,-1,-1,-1,-1,-1,-1,-1,-1,-1,-1,-1,-1,-1,-1,-1,-1,-1,-1,-1,-1,-1,-1,-1],"split_conditions":[3E0,2.38685E4,5.39935E4,1.255E2,5.39935E4,1.9027334E4,6E0,3.4749717E-2,1.3594E4,3.4738E4,2.96252E5,6.575E2,3.5247E4,9.34545E4,1.5139067E5,6.575E2,1.7631334E4,3.37275E4,5.32945E4,5.5552168E4,3.0276525E5,4E0,9.22675E3,2E1,8E0,9.2115664E4,5.145435E5,1.9E1,1E1,-1.14061736E-1,6.42E3,1.59265E4,1.797675E4,3.269E4,3.42275E4,3.90105E4,-1.8653214E-1,5.47905E4,6.46735E4,-3.7029076E-1,4.65475E5,1.255E2,1.255E2,2.4605E3,4E0,1.4E1,2.3480334E4,3.5765E4,3.6289E4,6.647446E4,4E0,4E0,8.051065E5,6.935675E4,8.1207E4,6.814905E5,5.53135E5,-3.0659094E-1,-2.6614937E-1,-1.6151163E-1,-2.6824412E-1,-3.8016766E-2,-1.6585386E-1,-9.799063E-2,-1.6684887E-1,-3.8031718E-1,-1.9016443E-1,-5.5725288E-2,-8.983976E-2,1.0287878E-1,3.865119E-2,-1.0651475E-1,-4.5394838E-2,-6.928778E-2,-1.2533306E-1,1.5272595E-1,-4.0255398E-2,2.8370535E-1,1.7706537E-1,-6.021619E-2,-2.8812316E-1,-5.669899E-2,-1.7070428E-1,-2.829394E-2,-1.7058659E-1,-5.2371204E-1,1.4951892E-1,9.999693E-2,-5.277654E-3,-1.9478248E-1,6.495635E-2,1.9652959E-2,3.9440174E-2,5.0316923E-3,-9.9735595E-2,5.198759E-2,8.343527E-2,3.4410134E-3,-8.7157644E-2,3.590139E-2,7.889825E-2,1.03720136E-1,1.7670132E-1,1.1531312E-1,-5.034318E-1,1.6225512E-1,-5.8866024E-1],"split_indices":[0,1,1,1,1,1,0,0,1,1,1,1,1,1,1,1,1,1,1,1,1,0,1,0,0,1,1,0,0,0,1,1,1,1,1,1,0,1,1,0,1,1,1,1,0,0,1,1,1,1,0,0,1,1,1,1,1,0,0,0,0,0,0,0,0,0,0,0,0,0,0,0,0,0,0,0,0,0,0,0,0,0,0,0,0,0,0,0,0,0,0,0,0,0,0,0,0,0,0,0,0,0,0,0,0,0,0],"split_type":[0,0,0,0,0,0,0,0,0,0,0,0,0,0,0,0,0,0,0,0,0,0,0,0,0,0,0,0,0,0,0,0,0,0,0,0,0,0,0,0,0,0,0,0,0,0,0,0,0,0,0,0,0,0,0,0,0,0,0,0,0,0,0,0,0,0,0,0,0,0,0,0,0,0,0,0,0,0,0,0,0,0,0,0,0,0,0,0,0,0,0,0,0,0,0,0,0,0,0,0,0,0,0,0,0,0,0],"sum_hessian":[1.3741292E5,4.4095887E4,9.331703E4,9.006785E3,3.50891E4,2.1341752E4,7.197528E4,8.883944E2,8.118391E3,9.681617E3,2.5407486E4,3.5446548E3,1.7797098E4,4.877272E4,2.3202564E4,4.117503E3,4.0008882E3,4.0439055E3,5.6377114E3,1.9712006E4,5.6954785E3,2.5440952E2,3.290245E3,7.614474E3,1.0182623E4,1.3012469E4,3.576025E4,1.2156448E4,1.1046117E4,2.5529349E2,3.8622095E3,1.6154126E3,2.3854756E3,3.78805E3,2.5585565E2,5.4761855E3,1.6152545E2,4.4488333E2,1.9267123E4,1.4075862E2,5.55472E3,1.4611638E2,1.0829313E2,5.458387E2,2.7444065E3,7.528274E3,8.62003E1,8.809492E3,1.3731309E3,1.2714968E4,2.9750058E2,3.3454875E4,2.3053735E3,1.0892846E4,1.2636027E3,7.2075605E3,3.8385562E3,1.5251527E3,2.3370566E3,9.9677637E2,6.186362E2,1.3745834E2,2.2480173E3,3.484849E3,3.0320093E2,1.1256281E2,1.4329283E2,1.4600809E3,4.0161047E3,2.3701108E2,2.0787225E2,1.704355E3,1.7562768E4,2.827595E3,2.7271252E3,1.1361923E2,3.249715E1,8.557507E1,2.2718054E1,9.024597E1,4.555927E2,1.7682985E3,9.761081E2,7.456017E3,7.225695E1,4.8763933E0,8.1323906E1,3.1679465E2,8.492697E3,3.4821434E1,1.3383094E3,4.6483916E3,8.066576E3,1.6574107E2,1.3175952E2,1.6605953E4,1.6848922E4,2.1418213E3,1.6355211E2,2.0504778E3,8.842367E3,3.0907028E2,9.545324E2,7.196621E3,1.0939404E1,3.8350889E3,3.4672022E0],"tree_param":{"num_deleted":"0","num_feature":"2","num_nodes":"107","size_leaf_vector":"1"}},{"base_weights":[4.8739365E-3,-2.4115561E-1,1.199541E-1,-5.7105833E-1,-1.7220648E-1,-6.588243E-2,1.7140038E-1,2.9363688E-3,-6.750151E-1,-2.8807414E-1,-1.5273185E-1,-3.0428383E-1,-3.0710293E-2,1.365572E-1,2.862108E-1,2.4811624E-2,-8.554523E-2,-8.5601026E-1,-5.001803E-1,-2.762954E-1,-2.0246007E-1,-1.320354E-1,-2.850382E-1,4.3786147E-1,-3.8896027E-1,2.5515598E-1,-3.745933E-2,8.265058E-2,1.6622323E-1,2.1805038E-1,3.703941E-1,-3.3131716E-1,-8.3134073E-1,-5.432252E-1,-4.136224E-1,-7.645783E-2,-2.8921792E-1,-1.8027905E-1,-9.944152E-2,-6.201445E-1,-2.614116E-1,6.0224336E-1,1.1822685E-1,-7.949926E-1,-2.9485536E-1,1.2186818E-1,1.8517729E0,-4.5042953E-1,-2.6655668E-2,3.2692388E-2,1.0695483E-1,1.0457527E-1,2.1784806E-1,1.9034736E-1,4.359348E-1,3.7191927E-1,-7.775017E-1,-2.679024E-1,-2.3646416E-1,-1.3405664E-1,-1.8918508E-1,-2.6089102E-2,-1.3834238E-1,-7.29118E-2,2.708109E-2,-2.4595904E-1,-8.236205E-2,-5.2063234E-2,-2.11922E-1,-1.3754829E-2,-4.7564115E-2,-1.23676665E-1,-2.6366138E-1,2.6518436E-2,-8.516424E-2,1.229265E-1,2.6452035E-1,7.724971E-2,-1.3606134E-1,-2.9411492E-1,-4.9169194E-2,-3.9897E-2,-1.8520686E-1,9.7823754E-2,-1.1951182E-1,-3.6411682E-1,7.1161413E-1,-1.8553305E-1,3.233385E-2,-1.5456702E-2,1.2384749E-2,1.8236889E-2,-2.0747574E-2,2.8594347E-2,6.026055E-2,5.0029784E-2,-1.4495186E-3,-1.376471E-1,6.6920094E-2,4.295695E-2,7.0330456E-2,1.3862517E-1,-4.5558847E-2,9.5184475E-2,1.3041916E-1],"categories":[],"categories_nodes":[],"categories_segments":[],"categories_sizes":[],"default_left":[0,0,0,0,0,0,0,0,0,0,0,0,0,0,0,0,0,0,0,0,0,0,0,0,0,0,0,0,0,0,0,0,0,0,0,0,0,0,0,0,0,0,0,0,0,0,0,0,0,0,0,0,0,0,0,0,0,0,0,0,0,0,0,0,0,0,0,0,0,0,0,0,0,0,0,0,0,0,0,0,0,0,0,0,0,0,0,0,0,0,0,0,0,0,0,0,0,0,0,0,0,0,0,0,0],"id":6,"left_children":[1,3,5,7,9,11,13,15,17,19,21,23,25,27,29,-1,-1,31,33,35,-1,37,39,41,43,45,47,49,51,53,55,-1,57,59,61,63,65,67,69,71,73,75,77,79,81,83,85,87,89,91,93,95,97,99,101,103,-1,-1,-1,-1,-1,-1,-1,-1,-1,-1,-1,-1,-1,-1,-1,-1,-1,-1,-1,-1,-1,-1,-1,-1,-1,-1,-1,-1,-1,-1,-1,-1,-1,-1,-1,-1,-1,-1,-1,-1,-1,-1,-1,-1,-1,-1,-1,-1,-1],"loss_changes":[3.7396265E3,9.573528E2,8.6035815E2,4.3416602E2,7.852026E1,1.6359685E2,2.8189917E2,2.5685726E1,1.9451001E2,2.2633118E1,8.1588684E1,1.5780403E2,3.281605E1,8.64563E1,9.406909E1,0E0,0E0,1.7619873E1,1.1459351E1,1.2534668E1,0E0,4.051825E1,3.1756317E1,1.3451111E1,8.581534E1,8.326401E1,7.410768E1,2.3303894E1,1.10973206E2,5.466046E1,3.4122314E1,0E0,6.6262207E0,1.7329895E1,1.619191E1,8.26222E0,3.5343994E1,3.67041E1,4.873268E1,1.3879532E1,2.9638123E1,8.768993E0,7.176014E0,4.9347534E1,9.544142E1,3.8711998E1,5.0977272E1,3.9782005E1,2.7354084E1,1.798653E1,1.4097168E1,1.0816562E2,6.713098E1,1.6698975E1,1.578302E1,2.504126E1,0E0,0E0,0E0,0E0,0E0,0E0,0E0,0E0,0E0,0E0,0E0,0E0,0E0,0E0,0E0,0E0,0E0,0E0,0E0,0E0,0E0,0E0,0E0,0E0,0E0,0E0,0E0,0E0,0E0,0E0,0E0,0E0,0E0,0E0,0E0,0E0,0E0,0E0,0E0,0E0,0E0,0E0,0E0,0E0,0E0,0E0,0E0,0E0,0E0],"parents":[2147483647,0,0,1,1,2,2,3,3,4,4,5,5,6,6,7,7,8,8,9,9,10,10,11,11,12,12,13,13,14,14,17,17,18,18,19,19,21,21,22,22,23,23,24,24,25,25,26,26,27,27,28,28,29,29,30,30,32,32,33,33,34,34,35,35,36,36,37,37,38,38,39,39,40,40,41,41,42,42,43,43,44,44,45,45,46,46,47,47,48,48,49,49,50,50,51,51,52,52,53,53,54,54,55,55],"right_children":[2,4,6,8,10,12,14,16,18,20,22,24,26,28,30,-1,-1,32,34,36,-1,38,40,42,44,46,48,50,52,54,56,-1,58,60,62,64,66,68,70,72,74,76,78,80,82,84,86,88,90,92,94,96,98,100,102,104,-1,-1,-1,-1,-1,-1,-1,-1,-1,-1,-1,-1,-1,-1,-1,-1,-1,-1,-1,-1,-1,-1,-1,-1,-1,-1,-1,-1,-1,-1,-1,-1,-1,-1,-1,-1,-1,-1,-1,-1,-1,-1,-1,-1,-1,-1,-1,-1,-1],"split_conditions":[3E0,2.2341E4,5.10565E4,6.575E2,3.6805E4,1.65985E4,7E0,1.255E2,1.32585E4,3.6289E4,3.607875E5,1.27E3,1.7631334E4,1.0663682E5,1.5139067E5,2.4811624E-2,-8.554523E-2,2.4605E3,1.9402E4,2.31035E4,-2.0246007E-1,8.58435E4,3.7946434E5,1.255E2,9.22675E3,1E1,1.9027334E4,6.647446E4,4E0,2E1,6.814905E5,-3.3131716E-1,7.1315E3,1.59265E4,1.9742334E4,2.2722334E4,2.3480334E4,8.46305E4,1.5679725E5,3.700065E5,3.8956434E5,4E0,5E0,5E0,4E0,4E0,1.7302E4,5E0,4.3093E4,5E0,6E0,2.7072762E5,1.08276664E5,9.34545E4,1.415575E5,1E1,-7.775017E-1,-2.679024E-1,-2.3646416E-1,-1.3405664E-1,-1.8918508E-1,-2.6089102E-2,-1.3834238E-1,-7.29118E-2,2.708109E-2,-2.4595904E-1,-8.236205E-2,-5.2063234E-2,-2.11922E-1,-1.3754829E-2,-4.7564115E-2,-1.23676665E-1,-2.6366138E-1,2.6518436E-2,-8.516424E-2,1.229265E-1,2.6452035E-1,7.724971E-2,-1.3606134E-1,-2.9411492E-1,-4.9169194E-2,-3.9897E-2,-1.8520686E-1,9.7823754E-2,-1.1951182E-1,-3.6411682E-1,7.1161413E-1,-1.8553305E-1,3.233385E-2,-1.5456702E-2,1.2384749E-2,1.8236889E-2,-2.0747574E-2,2.8594347E-2,6.026055E-2,5.0029784E-2,-1.4495186E-3,-1.376471E-1,6.6920094E-2,4.295695E-2,7.0330456E-2,1.3862517E-1,-4.5558847E-2,9.5184475E-2,1.3041916E-1],"split_indices":[0,1,1,1,1,1,0,1,1,1,1,1,1,1,1,0,0,1,1,1,0,1,1,1,1,0,1,1,0,0,1,0,1,1,1,1,1,1,1,1,1,0,0,0,0,0,1,0,1,0,0,1,1,1,1,0,0,0,0,0,0,0,0,0,0,0,0,0,0,0,0,0,0,0,0,0,0,0,0,0,0,0,0,0,0,0,0,0,0,0,0,0,0,0,0,0,0,0,0,0,0,0,0,0,0],"split_type":[0,0,0,0,0,0,0,0,0,0,0,0,0,0,0,0,0,0,0,0,0,0,0,0,0,0,0,0,0,0,0,0,0,0,0,0,0,0,0,0,0,0,0,0,0,0,0,0,0,0,0,0,0,0,0,0,0,0,0,0,0,0,0,0,0,0,0,0,0,0,0,0,0,0,0,0,0,0,0,0,0,0,0,0,0,0,0,0,0,0,0,0,0,0,0,0,0,0,0,0,0,0,0,0,0],"sum_hessian":[1.3207902E5,4.209122E4,8.998779E4,7.2750103E3,3.481621E4,1.951057E4,7.047722E4,1.1156954E3,6.1593145E3,5.007777E3,2.9808434E4,2.507404E3,1.7003166E4,5.4070004E4,1.6407217E4,8.743169E2,2.4137852E2,3.0244258E3,3.134889E3,4.861449E3,1.463279E2,2.5778021E4,4.0304119E3,2.563611E2,2.251043E3,3.9132114E2,1.6611846E4,1.9194729E4,3.4875277E4,9.068411E3,7.3388047E3,2.6929666E2,2.7551292E3,2.0901763E3,1.0447125E3,2.9569238E2,4.565757E3,1.0391935E4,1.5386087E4,2.6378525E2,3.7666267E3,1.6871175E2,8.764935E1,4.221508E2,1.8288922E3,3.6216354E2,2.9157585E1,4.2246375E2,1.6189381E4,6.2827236E3,1.2912005E4,1.5896019E4,1.897926E4,8.0471294E3,1.02128217E3,7.335902E3,2.902795E0,1.1257335E3,1.6293955E3,9.969353E2,1.093241E3,1.3303317E2,9.116794E2,1.4768228E2,1.480101E2,1.2141406E2,4.444343E3,1.0261902E4,1.3003232E2,8.070337E3,7.31575E3,1.477003E2,1.1608495E2,2.2716277E2,3.5394639E3,1.01366E2,6.734575E1,7.092329E1,1.672607E1,3.2586987E2,9.62809E1,1.2186538E3,6.1023834E2,2.6034366E2,1.0181989E2,4.0372043E0,2.512038E1,3.246425E2,9.782124E1,1.1851681E4,4.3377E3,4.9245967E3,1.3581267E3,1.1489881E4,1.4221237E3,1.0134626E4,5.761392E3,1.4459428E2,1.8834664E4,3.8902383E3,4.156891E3,9.779887E2,4.329348E1,3.9264492E3,3.4094524E3],"tree_param":{"num_deleted":"0","num_feature":"2","num_nodes":"105","size_leaf_vector":"1"}},{"base_weights":[3.0531439E-3,-1.7859924E-1,8.716329E-2,-4.828082E-1,-1.2570493E-1,-3.336684E-2,1.2996595E-1,1.7384136E-3,-5.909307E-1,-2.2679809E-1,-1.1027817E-1,-2.3388797E-1,-1.0559036E-2,9.815153E-2,2.0137298E-1,1.7624404E-2,-6.333841E-2,-7.68081E-1,-4.127165E-1,-2.0234144E-1,-7.3768765E-1,-9.844147E-2,-2.4334331E-1,3.4638408E-1,-2.9870835E-1,-1.7193185E-2,3.380173E-1,1.0756156E-1,1.0750715E-3,1.5950392E-1,3.2702458E-1,-3.2179463E-1,-7.3998743E-1,-5.624663E-1,-3.8154143E-1,-2.4919266E-1,-9.014355E-2,-3.4853902E-1,-1.3278285E-1,-1.3767655E-1,-7.739553E-2,-2.4038437E-1,-2.1652485E-1,5.07925E-1,8.0427565E-2,-3.711122E-1,2.1017998E-1,-9.321635E-2,1.3436705E-3,4.9118072E-1,2.8718767E-1,6.5965235E-2,1.3612847E-1,3.541498E-2,-8.545285E-2,1.291883E-1,2.8675973E-1,3.3081383E-1,-8.079466E-1,-2.0168959E-1,-2.4041885E-1,-1.2381256E-1,-2.1044452E-1,5.7191525E-2,-1.2752388E-1,-6.0224123E-2,-1.3220182E-1,5.2345462E-2,-5.8180474E-2,-3.6742322E-2,-1.363508E-1,-1.3709942E-2,-3.9889365E-2,-3.165579E-2,-8.622576E-2,9.6811675E-2,2.4476947E-1,-2.9219992E-3,2.1419786E-1,-6.2254857E-2,-2.6864547E-1,1.8628548E-1,-3.950451E-1,-2.5765957E-2,-5.543031E-1,3.810003E-2,-3.1130777E-3,-4.246719E-1,9.7625285E-2,2.4166398E-2,-3.1793586E-3,2.5644308E-2,5.567103E-2,4.9568308E-3,5.7109382E-2,-3.5805017E-2,5.782478E-2,2.9730333E-2,5.262434E-2,8.2032524E-2,2.6291263E-1,8.5436784E-2,1.2273402E-1,-8.6588734E-1,1.4535344E-1],"categories":[],"categories_nodes":[],"categories_segments":[],"categories_sizes":[],"default_left":[0,0,0,0,0,0,0,0,0,0,0,0,0,0,0,0,0,0,0,0,0,0,0,0,0,0,0,0,0,0,0,0,0,0,0,0,0,0,0,0,0,0,0,0,0,0,0,0,0,0,0,0,0,0,0,0,0,0,0,0,0,0,0,0,0,0,0,0,0,0,0,0,0,0,0,0,0,0,0,0,0,0,0,0,0,0,0,0,0,0,0,0,0,0,0,0,0,0,0,0,0,0,0,0,0],"id":7,"left_children":[1,3,5,7,9,11,13,15,17,19,21,23,25,27,29,-1,-1,31,33,35,37,39,41,43,45,47,49,51,53,55,57,-1,59,61,63,65,67,-1,-1,69,71,-1,73,75,77,79,81,83,85,-1,87,89,91,93,95,97,99,101,103,-1,-1,-1,-1,-1,-1,-1,-1,-1,-1,-1,-1,-1,-1,-1,-1,-1,-1,-1,-1,-1,-1,-1,-1,-1,-1,-1,-1,-1,-1,-1,-1,-1,-1,-1,-1,-1,-1,-1,-1,-1,-1,-1,-1,-1,-1],"loss_changes":[1.9561517E3,6.5194104E2,4.51472E2,3.144203E2,5.3809326E1,1.0488322E2,1.4668652E2,1.3311182E1,1.5458777E2,5.694223E1,4.7150604E1,8.819731E1,4.76262E1,4.0811035E1,1.0465546E2,0E0,0E0,2.025061E1,1.1214325E1,2.2906418E1,2.5561562E1,2.270224E1,3.6425446E1,1.0089834E1,7.772182E1,2.8479107E1,2.4932178E1,4.8387268E1,1.1736783E1,5.7562347E1,2.1656494E1,0E0,8.834717E0,8.448608E0,5.0636566E1,2.844986E1,3.5367912E1,0E0,0E0,4.6191544E1,3.1530357E1,0E0,1.8346535E1,8.093979E0,5.1650476E0,1.5810242E2,1.6585551E2,5.078729E1,2.3931257E1,0E0,2.4636135E1,1.8525726E1,6.0444702E1,8.274545E0,1.060598E1,1.6755524E1,2.2310379E1,1.7749268E1,4.663301E1,0E0,0E0,0E0,0E0,0E0,0E0,0E0,0E0,0E0,0E0,0E0,0E0,0E0,0E0,0E0,0E0,0E0,0E0,0E0,0E0,0E0,0E0,0E0,0E0,0E0,0E0,0E0,0E0,0E0,0E0,0E0,0E0,0E0,0E0,0E0,0E0,0E0,0E0,0E0,0E0,0E0,0E0,0E0,0E0,0E0,0E0],"parents":[2147483647,0,0,1,1,2,2,3,3,4,4,5,5,6,6,7,7,8,8,9,9,10,10,11,11,12,12,13,13,14,14,17,17,18,18,19,19,20,20,21,21,22,22,23,23,24,24,25,25,26,26,27,27,28,28,29,29,30,30,32,32,33,33,34,34,35,35,36,36,39,39,40,40,42,42,43,43,44,44,45,45,46,46,47,47,48,48,50,50,51,51,52,52,53,53,54,54,55,55,56,56,57,57,58,58],"right_children":[2,4,6,8,10,12,14,16,18,20,22,24,26,28,30,-1,-1,32,34,36,38,40,42,44,46,48,50,52,54,56,58,-1,60,62,64,66,68,-1,-1,70,72,-1,74,76,78,80,82,84,86,-1,88,90,92,94,96,98,100,102,104,-1,-1,-1,-1,-1,-1,-1,-1,-1,-1,-1,-1,-1,-1,-1,-1,-1,-1,-1,-1,-1,-1,-1,-1,-1,-1,-1,-1,-1,-1,-1,-1,-1,-1,-1,-1,-1,-1,-1,-1,-1,-1,-1,-1,-1,-1],"split_conditions":[3E0,2.1189E4,5.79265E4,6.575E2,3.4738E4,1.65985E4,6E0,1.255E2,1.32585E4,3.37275E4,4.65475E5,1.27E3,1.8E1,4.375135E5,2.27714E5,1.7624404E-2,-6.333841E-2,2.4605E3,1.45685E4,2.9802E4,3.42275E4,7.7672E4,4.8072866E5,1.255E2,6E0,2.63E4,1.7631334E4,1.168808E5,5.959837E5,1.4E1,6.814905E5,-3.2179463E-1,7.8355E3,1.3926E4,1.4914E4,2.80205E4,3.07595E4,-3.4853902E-1,-1.3278285E-1,7.44245E4,1.91276E5,-2.4038437E-1,5.959837E5,4E0,8E0,4E0,9E0,1.4E1,2.889E4,4.9118072E-1,2.3480334E4,5E0,4E0,5.738105E5,5E0,1.346615E5,2.232658E5,9E0,8.52342E5,-2.0168959E-1,-2.4041885E-1,-1.2381256E-1,-2.1044452E-1,5.7191525E-2,-1.2752388E-1,-6.0224123E-2,-1.3220182E-1,5.2345462E-2,-5.8180474E-2,-3.6742322E-2,-1.363508E-1,-1.3709942E-2,-3.9889365E-2,-3.165579E-2,-8.622576E-2,9.6811675E-2,2.4476947E-1,-2.9219992E-3,2.1419786E-1,-6.2254857E-2,-2.6864547E-1,1.8628548E-1,-3.950451E-1,-2.5765957E-2,-5.543031E-1,3.810003E-2,-3.1130777E-3,-4.246719E-1,9.7625285E-2,2.4166398E-2,-3.1793586E-3,2.5644308E-2,5.567103E-2,4.9568308E-3,5.7109382E-2,-3.5805017E-2,5.782478E-2,2.9730333E-2,5.262434E-2,8.2032524E-2,2.6291263E-1,8.5436784E-2,1.2273402E-1,-8.6588734E-1,1.4535344E-1],"split_indices":[0,1,1,1,1,1,0,1,1,1,1,1,0,1,1,0,0,1,1,1,1,1,1,1,0,1,1,1,1,0,1,0,1,1,1,1,1,0,0,1,1,0,1,0,0,0,0,0,1,0,1,0,0,1,0,1,1,0,1,0,0,0,0,0,0,0,0,0,0,0,0,0,0,0,0,0,0,0,0,0,0,0,0,0,0,0,0,0,0,0,0,0,0,0,0,0,0,0,0,0,0,0,0,0,0],"split_type":[0,0,0,0,0,0,0,0,0,0,0,0,0,0,0,0,0,0,0,0,0,0,0,0,0,0,0,0,0,0,0,0,0,0,0,0,0,0,0,0,0,0,0,0,0,0,0,0,0,0,0,0,0,0,0,0,0,0,0,0,0,0,0,0,0,0,0,0,0,0,0,0,0,0,0,0,0,0,0,0,0,0,0,0,0,0,0,0,0,0,0,0,0,0,0,0,0,0,0,0,0,0,0,0,0],"sum_hessian":[1.2802837E5,4.0518844E4,8.750952E4,6.000467E3,3.4518375E4,2.2932621E4,6.4576902E4,1.0948638E3,4.905603E3,4.568279E3,2.9950098E4,2.3410835E3,2.0591537E4,4.4674965E4,1.9901938E4,8.6415186E2,2.3071196E2,2.4584849E3,2.4471182E3,4.360915E3,2.0736401E2,2.750514E4,2.444957E3,2.3480103E2,2.1062825E3,2.0207889E4,3.8364835E2,4.0727016E4,3.9479504E3,1.4929476E4,4.9724614E3,2.044815E2,2.2540034E3,4.1872516E2,2.0283931E3,3.0754558E3,1.2854592E3,8.387507E1,1.2348895E2,9.600946E3,1.7904195E4,1.1080774E2,2.3341494E3,1.455094E2,8.929162E1,1.8441678E3,2.6211456E2,3.9606167E3,1.6247271E4,1.32690325E1,3.703793E2,1.6583318E4,2.4143695E4,2.826716E3,1.1212341E3,1.2058778E4,2.8706975E3,4.956622E3,1.5839784E1,1.0778606E3,1.1761427E3,2.0348483E2,2.1524031E2,1.431912E2,1.8852019E3,2.4560972E3,6.1935864E2,3.6194818E2,9.23511E2,9.162683E3,4.382633E2,1.1402312E4,6.5018833E3,9.1069006E2,1.4234592E3,9.214185E1,5.3367554E1,7.9029015E1,1.0262602E1,1.4066964E3,4.374714E2,2.0701863E2,5.509594E1,3.9451833E3,1.5433333E1,1.3853295E3,1.4861942E4,7.341937E0,3.6303738E2,1.392903E4,2.6542886E3,1.1927762E4,1.2215933E4,2.52051E3,3.062062E2,9.999656E2,1.2126862E2,7.306406E3,4.752373E3,2.808719E3,6.1978447E1,3.1246099E3,1.8320121E3,5.600572E0,1.0239211E1],"tree_param":{"num_deleted":"0","num_feature":"2","num_nodes":"105","size_leaf_vector":"1"}},{"base_weights":[1.7657304E-3,-1.3112926E-1,6.2743515E-2,-4.03859E-1,-9.116968E-2,-5.5928282E-2,8.76154E-2,1.0177748E-3,-5.1463E-1,-2.1518251E-1,-8.173839E-2,-2.4317448E-1,-3.8141288E-2,7.294729E-2,1.847441E-1,1.2470228E-2,-4.6337944E-2,-7.1366537E-1,-3.6865976E-1,6.2280618E-2,-2.352055E-1,1.1975732E-1,-8.577622E-2,-3.7372482E-1,4.8596808E-1,3.6765903E-1,-4.338646E-2,3.336406E-2,9.3057275E-2,1.514617E-1,3.1777602E-1,-6.707473E-1,-3.216778E-1,-4.8754176E-1,-3.1269252E-1,-1.9698426E-1,-2.1595018E-1,-1.6817325E-1,-8.158498E-2,2.4196568E-1,-5.0064003E-1,7.495846E-1,-1.0717121E0,4.8530307E-1,-3.715133E-1,-5.6062732E-2,7.732764E-2,4.132928E-2,-1.9950533E-1,7.035665E-2,1.3715541E-1,1.4033477E-1,5.671055E-1,3.2414854E-1,-8.998735E-1,-2.3881939E-1,-1.4105634E-1,-7.420614E-2,-1.6995388E-1,3.8382143E-2,-1.0783491E-1,-4.7155462E-2,-1.0892188E-1,-2.2361139E-2,-5.8709096E-2,1.01635836E-1,2.8246094E-2,-3.2943362E-1,-1.1781499E-1,2.6367778E-1,-3.8013363E-1,1.1235364E-1,-3.5903704E-1,9.7303495E-2,5.6322396E-1,-1.4571124E-2,-1.4220567E-1,8.346511E-2,-3.3318363E-2,1.41769545E-2,-1.650196E-2,-7.4513394E-1,-5.235313E-2,3.4311403E-2,6.6061625E-3,9.561699E-3,5.2028064E-2,4.2917836E-2,-2.7710328E-1,1.8437146E-1,-6.104638E-2,1.03108205E-1,-3.3568203E-2],"categories":[],"categories_nodes":[],"categories_segments":[],"categories_sizes":[],"default_left":[0,0,0,0,0,0,0,0,0,0,0,0,0,0,0,0,0,0,0,0,0,0,0,0,0,0,0,0,0,0,0,0,0,0,0,0,0,0,0,0,0,0,0,0,0,0,0,0,0,0,0,0,0,0,0,0,0,0,0,0,0,0,0,0,0,0,0,0,0,0,0,0,0,0,0,0,0,0,0,0,0,0,0,0,0,0,0,0,0,0,0,0,0],"id":8,"left_children":[1,3,5,7,9,11,13,15,17,19,21,23,25,27,29,-1,-1,31,33,-1,35,-1,37,39,41,43,45,47,49,51,53,55,-1,57,59,-1,61,-1,63,65,67,69,71,73,-1,75,77,79,81,83,85,87,89,91,-1,-1,-1,-1,-1,-1,-1,-1,-1,-1,-1,-1,-1,-1,-1,-1,-1,-1,-1,-1,-1,-1,-1,-1,-1,-1,-1,-1,-1,-1,-1,-1,-1,-1,-1,-1,-1,-1,-1],"loss_changes":[1.01331415E3,4.285829E2,2.5299979E2,2.2539862E2,4.0105286E1,4.945749E1,1.0094507E2,6.8192964E0,1.14384766E2,2.0568214E1,6.194597E1,1.2281369E2,2.8889275E1,4.9005676E1,4.1114777E1,0E0,0E0,2.4959656E1,1.500827E1,0E0,1.8641113E1,0E0,6.287268E1,8.554585E1,8.13158E1,3.332637E1,2.049829E1,3.848342E1,4.0858948E1,3.432132E1,4.0283035E1,3.714618E1,0E0,1.3660339E1,3.202231E1,0E0,1.9094177E1,0E0,2.5191833E1,2.6516142E0,5.803441E1,4.500808E1,5.65625E0,3.5713375E1,0E0,3.793274E1,4.8214455E1,1.1455669E1,3.874595E1,5.7341187E1,5.2971985E1,2.113797E1,7.206547E0,1.5864075E1,0E0,0E0,0E0,0E0,0E0,0E0,0E0,0E0,0E0,0E0,0E0,0E0,0E0,0E0,0E0,0E0,0E0,0E0,0E0,0E0,0E0,0E0,0E0,0E0,0E0,0E0,0E0,0E0,0E0,0E0,0E0,0E0,0E0,0E0,0E0,0E0,0E0,0E0,0E0],"parents":[2147483647,0,0,1,1,2,2,3,3,4,4,5,5,6,6,7,7,8,8,9,9,10,10,11,11,12,12,13,13,14,14,17,17,18,18,20,20,22,22,23,23,24,24,25,25,26,26,27,27,28,28,29,29,30,30,31,31,33,33,34,34,36,36,38,38,39,39,40,40,41,41,42,42,43,43,45,45,46,46,47,47,48,48,49,49,50,50,51,51,52,52,53,53],"right_children":[2,4,6,8,10,12,14,16,18,20,22,24,26,28,30,-1,-1,32,34,-1,36,-1,38,40,42,44,46,48,50,52,54,56,-1,58,60,-1,62,-1,64,66,68,70,72,74,-1,76,78,80,82,84,86,88,90,92,-1,-1,-1,-1,-1,-1,-1,-1,-1,-1,-1,-1,-1,-1,-1,-1,-1,-1,-1,-1,-1,-1,-1,-1,-1,-1,-1,-1,-1,-1,-1,-1,-1,-1,-1,-1,-1,-1,-1],"split_conditions":[3E0,2.0084E4,4.3093E4,6.575E2,2.7566E4,1.2926333E4,9E0,1.255E2,1.12565E4,2.0451E4,2.80205E4,6E0,1.3594E4,9.34545E4,2.18658E5,1.2470228E-2,-4.6337944E-2,1.02595E4,1.45685E4,6.2280618E-2,2.0831E4,1.1975732E-1,2.889E4,1.27E3,9E0,6E0,8E0,8E0,5E0,3.9E1,5.738105E5,7.1315E3,-3.216778E-1,1.22555E4,1.4914E4,-1.9698426E-1,2.5471666E4,-1.6817325E-1,5.332077E5,1.255E2,6.42E3,1.22555E4,1.255E2,5E0,-3.715133E-1,4.25025E4,3.02905E4,8.9506E4,4.4334E4,2.02069E5,1.346615E5,3.6E1,6.4E1,4.375135E5,-8.998735E-1,-2.3881939E-1,-1.4105634E-1,-7.420614E-2,-1.6995388E-1,3.8382143E-2,-1.0783491E-1,-4.7155462E-2,-1.0892188E-1,-2.2361139E-2,-5.8709096E-2,1.01635836E-1,2.8246094E-2,-3.2943362E-1,-1.1781499E-1,2.6367778E-1,-3.8013363E-1,1.1235364E-1,-3.5903704E-1,9.7303495E-2,5.6322396E-1,-1.4571124E-2,-1.4220567E-1,8.346511E-2,-3.3318363E-2,1.41769545E-2,-1.650196E-2,-7.4513394E-1,-5.235313E-2,3.4311403E-2,6.6061625E-3,9.561699E-3,5.2028064E-2,4.2917836E-2,-2.7710328E-1,1.8437146E-1,-6.104638E-2,1.03108205E-1,-3.3568203E-2],"split_indices":[0,1,1,1,1,1,0,1,1,1,1,0,1,1,1,0,0,1,1,0,1,0,1,1,0,0,0,0,0,0,1,1,0,1,1,0,1,0,1,1,1,1,1,0,0,1,1,1,1,1,1,0,0,1,0,0,0,0,0,0,0,0,0,0,0,0,0,0,0,0,0,0,0,0,0,0,0,0,0,0,0,0,0,0,0,0,0,0,0,0,0,0,0],"split_type":[0,0,0,0,0,0,0,0,0,0,0,0,0,0,0,0,0,0,0,0,0,0,0,0,0,0,0,0,0,0,0,0,0,0,0,0,0,0,0,0,0,0,0,0,0,0,0,0,0,0,0,0,0,0,0,0,0,0,0,0,0,0,0,0,0,0,0,0,0,0,0,0,0,0,0,0,0,0,0,0,0,0,0,0,0,0,0,0,0,0,0,0,0],"sum_hessian":[1.2504226E5,3.9328523E4,8.5713734E4,5.0247563E3,3.4303766E4,1.4851445E4,7.086229E4,1.0796266E3,3.9451296E3,2.4229094E3,3.1880857E4,1.28729E3,1.3564155E4,6.156645E4,9.295843E3,8.5687915E2,2.2274748E2,1.66752E3,2.2776099E3,1.0913614E2,2.3137732E3,2.6462466E2,3.1616232E4,1.0922195E3,1.950705E2,1.7220454E2,1.3391951E4,2.0741945E4,4.0824504E4,7.437293E3,1.8585502E3,1.4918403E3,1.7567964E2,7.2656866E2,1.5510411E3,9.965661E1,2.2141165E3,2.7548373E2,3.1340748E4,1.8651114E2,9.057084E2,1.6727946E2,2.7791027E1,1.611015E2,1.1103046E1,1.211978E4,1.2721709E3,2.0056734E4,6.852113E2,2.6952582E4,1.3871921E4,7.2446875E3,1.9260521E2,1.8558873E3,2.6628084E0,9.1631915E2,5.755212E2,1.808011E2,5.457676E2,1.4863062E2,1.4024105E3,1.5836334E3,6.3048315E2,2.9519219E4,1.8215302E3,1.1191328E2,7.459787E1,1.37167E2,7.685414E2,1.5772774E2,9.551729E0,2.053464E0,2.5737562E1,1.4551033E2,1.5591164E1,1.1907442E4,2.1233769E2,6.1542865E2,6.5674225E2,1.889471E4,1.1620222E3,6.351797E0,6.788595E2,1.4106181E4,1.2846401E4,3.5549756E3,1.0316945E4,7.2270464E3,1.76411E1,1.8162047E2,1.0984747E1,1.7764695E3,7.941788E1],"tree_param":{"num_deleted":"0","num_feature":"2","num_nodes":"93","size_leaf_vector":"1"}},{"base_weights":[9.1328006E-4,-9.537343E-2,4.4785872E-2,-3.4641662E-1,-6.690605E-2,-7.0505776E-2,5.9326284E-2,5.919237E-4,-4.7655225E-1,-1.2073858E-1,-4.780759E-2,-2.55925E-1,-5.7161838E-2,5.2235875E-2,1.8078478E-1,8.79788E-3,-3.3555984E-2,-6.2630963E-1,-3.3464232E-1,1.1059822E-1,-1.2621154E-1,-2.8027706E-2,-9.9419124E-2,1.734822E-1,-5.2043074E-1,-1.253773E-2,-1.20955266E-1,2.1625992E-2,7.148298E-2,1.59345E-1,4.7722808E-1,-5.8073795E-1,-3.1466934E-1,-2.949391E-1,-3.2824835E-1,-4.944759E-1,-1.19437315E-1,-3.5348345E-2,3.2068598E-1,-3.3541897E-1,-8.099943E-2,2.7958168E-2,8.886467E-1,-3.260284E-1,-3.2595348E-1,5.500113E-2,-1.2276935E-1,-2.6778632E-1,3.286181E-2,2.548524E-2,-1.013132E-1,5.0078962E-2,1.05215706E-1,1.64984E-1,-6.309921E-1,5.0794226E-1,-2.1228808E-1,-2.1512736E-1,-1.1434964E-1,-1.1833038E-1,-6.257507E-2,1.4058226E-2,-3.3194554E-1,-3.2029185E-2,-8.32828E-2,-8.959798E-3,-2.8014076E-1,1.4537032E-1,4.146637E-2,9.20214E-2,-2.7595457E-2,5.429485E-2,-3.21805E-1,5.95385E-2,6.638355E-1,4.2420837E-1,-1.3604152E-1,6.2857503E-3,9.4668426E-2,-1.2767865E-1,-1.5560385E-2,-1.0169376E-1,1.0883994E-2,1.09655E-1,-3.1198507E-2,3.634542E-3,1.5942223E-2,-1.8289525E-2,-1.579244E-1,2.396624E-2,3.5896024E-3,1.9109752E-2,5.2827302E-2,2.254337E-2,6.2151395E-2,-1.3648378E0,-1.7026817E-2,2.2598936E-1,1.3249436E-1,-9.4852513E-1,1.6581514E-1],"categories":[],"categories_nodes":[],"categories_segments":[],"categories_sizes":[],"default_left":[0,0,0,0,0,0,0,0,0,0,0,0,0,0,0,0,0,0,0,0,0,0,0,0,0,0,0,0,0,0,0,0,0,0,0,0,0,0,0,0,0,0,0,0,0,0,0,0,0,0,0,0,0,0,0,0,0,0,0,0,0,0,0,0,0,0,0,0,0,0,0,0,0,0,0,0,0,0,0,0,0,0,0,0,0,0,0,0,0,0,0,0,0,0,0,0,0,0,0,0,0],"id":9,"left_children":[1,3,5,7,9,11,13,15,17,19,21,23,25,27,29,-1,-1,31,33,-1,35,37,39,41,43,45,47,49,51,53,55,57,-1,59,-1,61,63,65,67,-1,69,71,73,-1,75,77,79,81,83,85,87,89,91,93,95,97,99,-1,-1,-1,-1,-1,-1,-1,-1,-1,-1,-1,-1,-1,-1,-1,-1,-1,-1,-1,-1,-1,-1,-1,-1,-1,-1,-1,-1,-1,-1,-1,-1,-1,-1,-1,-1,-1,-1,-1,-1,-1,-1,-1,-1],"loss_changes":[5.192079E2,2.7492386E2,1.4155115E2,1.769346E2,3.552153E1,2.3383469E1,6.456253E1,3.4592528E0,6.034784E1,2.428244E1,2.6037758E1,7.216742E1,2.5115578E1,4.173729E1,2.6206482E1,0E0,0E0,2.606836E1,4.3861603E1,0E0,2.2266342E1,4.7090775E1,1.3250784E2,2.5227888E1,4.2924316E1,3.8666016E1,8.202556E1,1.2979402E1,3.1399216E1,1.7297523E1,6.0038643E0,3.3814484E1,0E0,1.1893272E1,0E0,5.3499977E1,1.7588135E1,8.894856E1,1.1275131E1,0E0,2.9599651E1,3.4325478E1,3.702459E1,0E0,6.585832E1,2.8565426E1,4.234261E1,4.0233643E1,8.0820625E1,9.805113E0,1.4249767E1,3.0233795E1,4.966986E1,1.4505539E1,6.170554E1,4.007431E0,3.012753E1,0E0,0E0,0E0,0E0,0E0,0E0,0E0,0E0,0E0,0E0,0E0,0E0,0E0,0E0,0E0,0E0,0E0,0E0,0E0,0E0,0E0,0E0,0E0,0E0,0E0,0E0,0E0,0E0,0E0,0E0,0E0,0E0,0E0,0E0,0E0,0E0,0E0,0E0,0E0,0E0,0E0,0E0,0E0,0E0],"parents":[2147483647,0,0,1,1,2,2,3,3,4,4,5,5,6,6,7,7,8,8,9,9,10,10,11,11,12,12,13,13,14,14,17,17,18,18,20,20,21,21,22,22,23,23,24,24,25,25,26,26,27,27,28,28,29,29,30,30,31,31,33,33,35,35,36,36,37,37,38,38,40,40,41,41,42,42,44,44,45,45,46,46,47,47,48,48,49,49,50,50,51,51,52,52,53,53,54,54,55,55,56,56],"right_children":[2,4,6,8,10,12,14,16,18,20,22,24,26,28,30,-1,-1,32,34,-1,36,38,40,42,44,46,48,50,52,54,56,58,-1,60,-1,62,64,66,68,-1,70,72,74,-1,76,78,80,82,84,86,88,90,92,94,96,98,100,-1,-1,-1,-1,-1,-1,-1,-1,-1,-1,-1,-1,-1,-1,-1,-1,-1,-1,-1,-1,-1,-1,-1,-1,-1,-1,-1,-1,-1,-1,-1,-1,-1,-1,-1,-1,-1,-1,-1,-1,-1,-1,-1,-1],"split_conditions":[3E0,1.7631334E4,3.32188E4,6.575E2,4.8240332E4,1.02595E4,1.3E1,1.255E2,1.12565E4,1.797675E4,2.27714E5,2.4605E3,4E0,9.34545E4,3.5E1,8.79788E-3,-3.3555984E-2,1.02595E4,1.7302E4,1.1059822E-1,1.8673E4,2.18658E5,2.325875E5,6E0,6.42E3,2.5087E4,2.5871E4,9.0792E4,5E0,3.3E1,6.4E1,7.1315E3,-3.1466934E-1,1.45685E4,-3.2824835E-1,1.83195E4,4.5613E4,2.1426425E5,2.232658E5,-3.3541897E-1,2.374755E5,1.27E3,1.9148E3,-3.260284E-1,6.786857E3,2.38685E4,2.6710445E4,8E0,2.7566E4,6.935675E4,8E0,2.18658E5,2.27714E5,8.9506E4,8.58435E4,5.5552168E4,1.24463E5,-2.1512736E-1,-1.1434964E-1,-1.1833038E-1,-6.257507E-2,1.4058226E-2,-3.3194554E-1,-3.2029185E-2,-8.32828E-2,-8.959798E-3,-2.8014076E-1,1.4537032E-1,4.146637E-2,9.20214E-2,-2.7595457E-2,5.429485E-2,-3.21805E-1,5.95385E-2,6.638355E-1,4.2420837E-1,-1.3604152E-1,6.2857503E-3,9.4668426E-2,-1.2767865E-1,-1.5560385E-2,-1.0169376E-1,1.0883994E-2,1.09655E-1,-3.1198507E-2,3.634542E-3,1.5942223E-2,-1.8289525E-2,-1.579244E-1,2.396624E-2,3.5896024E-3,1.9109752E-2,5.2827302E-2,2.254337E-2,6.2151395E-2,-1.3648378E0,-1.7026817E-2,2.2598936E-1,1.3249436E-1,-9.4852513E-1,1.6581514E-1],"split_indices":[0,1,1,1,1,1,0,1,1,1,1,1,0,1,0,0,0,1,1,0,1,1,1,0,1,1,1,1,0,0,0,1,0,1,0,1,1,1,1,0,1,1,1,0,1,1,1,0,1,1,0,1,1,1,1,1,1,0,0,0,0,0,0,0,0,0,0,0,0,0,0,0,0,0,0,0,0,0,0,0,0,0,0,0,0,0,0,0,0,0,0,0,0,0,0,0,0,0,0,0,0],"split_type":[0,0,0,0,0,0,0,0,0,0,0,0,0,0,0,0,0,0,0,0,0,0,0,0,0,0,0,0,0,0,0,0,0,0,0,0,0,0,0,0,0,0,0,0,0,0,0,0,0,0,0,0,0,0,0,0,0,0,0,0,0,0,0,0,0,0,0,0,0,0,0,0,0,0,0,0,0,0,0,0,0,0,0,0,0,0,0,0,0,0,0,0,0,0,0,0,0,0,0,0,0],"sum_hessian":[1.2290642E5,3.847174E4,8.443468E4,3.9171023E3,3.4554637E4,9.455745E3,7.497894E4,1.0686165E3,2.8484858E3,9.047441E3,2.5507193E4,6.3358984E2,8.822155E3,7.084466E4,4.1342837E3,8.5170917E2,2.169073E2,1.3842623E3,1.4642235E3,9.93248E1,8.948116E3,1.8441225E4,7.06597E3,2.4164296E2,3.9194687E2,5.191705E3,3.6304504E3,2.7350133E4,4.349452E4,3.856879E3,2.7740488E2,1.2516584E3,1.3260393E2,1.3928042E3,7.141934E1,1.6032701E2,8.787789E3,1.8062922E4,3.783011E2,1.2444114E2,6.941529E3,2.016497E2,3.9993248E1,9.9016426E1,2.9293045E2,3.2195745E3,1.9721307E3,1.8570255E3,1.7734248E3,2.651847E4,8.316623E2,2.6611523E4,1.6882996E4,3.830341E3,2.6537918E1,2.6582706E2,1.1577802E1,7.42066E2,5.0959244E2,6.455077E2,7.4729645E2,8.556562E1,7.476139E1,8.137459E3,6.503307E2,1.7954398E4,1.08524254E2,1.9842706E2,1.7987401E2,1.9050807E2,6.751021E3,1.7776956E2,2.3880136E1,2.7045902E1,1.2947348E1,1.931324E1,2.736172E2,2.8484363E3,3.711381E2,3.7319205E2,1.5989386E3,1.5046241E3,3.5240146E2,5.1644434E2,1.2569805E3,1.7877162E4,8.641308E3,7.6061285E2,7.104946E1,1.4932098E4,1.1679427E4,1.0647767E4,6.235231E3,1.2248208E3,2.6055203E3,2.5071337E0,2.4030785E1,5.434252E1,2.1148454E2,1.7392356E0,9.838566E0],"tree_param":{"num_deleted":"0","num_feature":"2","num_nodes":"101","size_leaf_vector":"1"}},{"base_weights":[3.28444E-4,-1.9211908E-1,1.207473E-2,2.5401343E-2,-2.3832369E-1,-4.6396215E-2,3.666629E-2,8.7278744E-4,5.538065E-1,-6.398674E-1,-1.8515512E-1,-9.16317E-2,-3.3621266E-2,7.489753E-3,5.603239E-2,2.8686887E-2,-1.03276186E-1,6.76134E-1,2.915211E-1,-5.2665526E-1,-3.125159E-1,-2.221116E-1,1.1090729E-1,-7.245776E-2,-3.311573E-1,2.595505E-1,-3.7998922E-2,3.8242796E-1,5.6755138E-3,3.9656345E-2,1.140524E-1,6.1938423E-3,3.5415646E-2,-2.4100684E-2,-7.316733E-2,1.611104E-1,8.784516E-1,2.3350102E-1,-2.6262656E-1,-6.6357017E-1,-3.049496E-1,-1.7617317E-1,-8.7084955E-1,-3.4410393E-1,1.6535424E-1,-8.6313196E-2,1.0380166E-1,-2.6606295E-1,-1.6291074E-1,-5.648204E-3,1.4908624E-1,-2.003616E-1,-3.4610003E-2,6.322682E-1,-4.1561317E-1,-6.1113787E-1,7.819268E-3,4.426916E-2,-5.5682134E-2,9.849066E-2,2.6208323E-1,2.8247377E-1,8.906078E-2,-7.9548496E-1,1.9305623E-1,-2.2261988E-1,6.0714833E-2,-5.1845387E-2,-3.110537E-1,-8.672273E-2,-7.767391E-3,-3.461349E-1,-1.751119E-1,1.3865099E0,2.728151E-2,6.497219E-2,-2.740789E-2,-1.2256218E-1,-2.8222732E-3,7.995565E-2,-1.10199265E-2,9.291281E-2,4.787375E-1,-4.8376563E-1,8.601676E-2,1.0192845E-1,1.1403268E-3,4.8804246E-3,1.5979707E-2,-6.39707E-2,-8.574356E-3,2.2710538E-2,4.742918E-2,7.108946E-2,1.7566544E-1],"categories":[],"categories_nodes":[],"categories_segments":[],"categories_sizes":[],"default_left":[0,0,0,0,0,0,0,0,0,0,0,0,0,0,0,0,0,0,0,0,0,0,0,0,0,0,0,0,0,0,0,0,0,0,0,0,0,0,0,0,0,0,0,0,0,0,0,0,0,0,0,0,0,0,0,0,0,0,0,0,0,0,0,0,0,0,0,0,0,0,0,0,0,0,0,0,0,0,0,0,0,0,0,0,0,0,0,0,0,0,0,0,0,0,0],"id":10,"left_children":[1,3,5,7,9,11,13,15,17,19,21,23,25,27,29,31,33,35,37,39,-1,41,43,45,47,49,51,53,55,57,59,-1,-1,-1,-1,-1,61,-1,63,65,67,69,71,-1,73,75,-1,77,-1,-1,-1,-1,79,81,-1,83,85,87,89,91,93,-1,-1,-1,-1,-1,-1,-1,-1,-1,-1,-1,-1,-1,-1,-1,-1,-1,-1,-1,-1,-1,-1,-1,-1,-1,-1,-1,-1,-1,-1,-1,-1,-1,-1],"loss_changes":[2.7415335E2,7.012317E1,1.6435426E2,1.5853285E1,1.2273358E2,1.9552704E1,4.546321E1,3.392024E0,1.5438099E0,3.0043457E1,5.5638718E1,3.419912E1,3.3878674E1,2.1834026E1,4.594536E1,6.616038E-1,7.765484E-1,5.4824066E-1,5.334193E0,1.5784164E1,0E0,1.345265E2,3.886843E1,4.004005E1,7.468979E0,2.567685E1,5.5481384E1,6.9143684E1,4.224916E1,1.6589817E1,2.449556E1,0E0,0E0,0E0,0E0,0E0,2.048645E-1,0E0,2.2575891E1,2.2223816E1,1.9444296E1,7.162067E1,2.3585098E1,0E0,1.7937932E2,1.0230682E1,0E0,1.5509672E1,0E0,0E0,0E0,0E0,1.6545408E1,4.180924E1,0E0,9.9963196E1,4.2464443E1,9.062286E0,7.428266E0,1.3074219E1,8.083557E0,0E0,0E0,0E0,0E0,0E0,0E0,0E0,0E0,0E0,0E0,0E0,0E0,0E0,0E0,0E0,0E0,0E0,0E0,0E0,0E0,0E0,0E0,0E0,0E0,0E0,0E0,0E0,0E0,0E0,0E0,0E0,0E0,0E0,0E0],"parents":[2147483647,0,0,1,1,2,2,3,3,4,4,5,5,6,6,7,7,8,8,9,9,10,10,11,11,12,12,13,13,14,14,15,15,16,16,17,17,18,18,19,19,21,21,22,22,23,23,24,24,25,25,26,26,27,27,28,28,29,29,30,30,36,36,38,38,39,39,40,40,41,41,42,42,44,44,45,45,47,47,52,52,53,53,55,55,56,56,57,57,58,58,59,59,60,60],"right_children":[2,4,6,8,10,12,14,16,18,20,22,24,26,28,30,32,34,36,38,40,-1,42,44,46,48,50,52,54,56,58,60,-1,-1,-1,-1,-1,62,-1,64,66,68,70,72,-1,74,76,-1,78,-1,-1,-1,-1,80,82,-1,84,86,88,90,92,94,-1,-1,-1,-1,-1,-1,-1,-1,-1,-1,-1,-1,-1,-1,-1,-1,-1,-1,-1,-1,-1,-1,-1,-1,-1,-1,-1,-1,-1,-1,-1,-1,-1,-1],"split_conditions":[1.9402E4,6.575E2,3E0,4E0,6.42E3,4.4334E4,8.58435E4,1.255E2,1.255E2,5.3875E3,5E0,4.1894E4,4.5613E4,1.9742334E4,7E0,3E0,3E0,6E0,5E0,3.853E3,-3.125159E-1,4E0,8.191E3,4.12955E4,4.36955E4,4.49785E4,4.6269E4,5E0,2.0084E4,5.53135E5,1.9E1,6.1938423E-3,3.5415646E-2,-2.4100684E-2,-7.316733E-2,1.611104E-1,9E0,2.3350102E-1,7E0,6E0,3E0,3E0,1.52505E4,-3.4410393E-1,8.5415E3,1.9742334E4,1.0380166E-1,4.3093E4,-1.6291074E-1,-5.648204E-3,1.4908624E-1,-2.003616E-1,4.6901E4,4E0,-4.1561317E-1,4E0,2.0831E4,1.204609E5,5.738105E5,2.27714E5,4.5E1,2.8247377E-1,8.906078E-2,-7.9548496E-1,1.9305623E-1,-2.2261988E-1,6.0714833E-2,-5.1845387E-2,-3.110537E-1,-8.672273E-2,-7.767391E-3,-3.461349E-1,-1.751119E-1,1.3865099E0,2.728151E-2,6.497219E-2,-2.740789E-2,-1.2256218E-1,-2.8222732E-3,7.995565E-2,-1.10199265E-2,9.291281E-2,4.787375E-1,-4.8376563E-1,8.601676E-2,1.0192845E-1,1.1403268E-3,4.8804246E-3,1.5979707E-2,-6.39707E-2,-8.574356E-3,2.2710538E-2,4.742918E-2,7.108946E-2,1.7566544E-1],"split_indices":[1,1,0,0,1,1,1,1,1,1,0,1,1,1,0,0,0,0,0,1,0,0,1,1,1,1,1,0,1,1,0,0,0,0,0,0,0,0,0,0,0,0,1,0,1,1,0,1,0,0,0,0,1,0,0,0,1,1,1,1,0,0,0,0,0,0,0,0,0,0,0,0,0,0,0,0,0,0,0,0,0,0,0,0,0,0,0,0,0,0,0,0,0,0,0],"split_type":[0,0,0,0,0,0,0,0,0,0,0,0,0,0,0,0,0,0,0,0,0,0,0,0,0,0,0,0,0,0,0,0,0,0,0,0,0,0,0,0,0,0,0,0,0,0,0,0,0,0,0,0,0,0,0,0,0,0,0,0,0,0,0,0,0,0,0,0,0,0,0,0,0,0,0,0,0,0,0,0,0,0,0,0,0,0,0,0,0,0,0,0,0,0,0],"sum_hessian":[1.2127558E5,6.9755166E3,1.1430006E5,1.2221888E3,5.7533276E3,3.3839516E4,8.046055E4,1.1689288E3,5.326E1,6.714345E2,5.081893E3,7.450714E3,2.6388803E4,3.210031E4,4.836024E4,9.231234E2,2.4580544E2,3.524445E1,1.8015549E1,5.2565466E2,1.4577985E2,4.5181567E3,5.637366E2,6.8996978E3,5.510161E2,3.873842E2,2.600142E4,1.5356773E2,3.1946744E4,3.7716504E4,1.0643732E4,8.480501E2,7.5073296E1,2.1267926E2,3.312618E1,2.305077E1,1.219368E1,9.375052E0,8.640496E0,3.2373703E2,2.0191762E2,4.220562E3,2.9759488E2,2.2555555E1,5.41181E2,6.679337E3,2.2036095E2,4.2324155E2,1.2777456E2,1.7872876E2,2.0865544E2,1.3809808E2,2.586332E4,1.3511461E2,1.8453125E1,1.0966345E2,3.183708E4,3.5976375E4,1.7401294E3,9.632755E3,1.01097754E3,1.0441335E1,1.7523454E0,1.8463855E0,6.794111E0,2.9696143E2,2.6775612E1,1.720864E2,2.983122E1,2.40947E3,1.8110918E3,1.4837604E2,1.4921883E2,7.885029E0,5.33296E2,1.0877451E2,6.5705625E3,2.717774E2,1.5146414E2,1.8019868E2,2.5683123E4,1.0221689E2,3.2897724E1,5.1465847E1,5.8197605E1,3.7978085E2,3.1457299E4,8.748886E3,2.7227488E4,2.5438336E2,1.485746E3,6.9701772E3,2.6625774E3,9.3973645E2,7.124107E1],"tree_param":{"num_deleted":"0","num_feature":"2","num_nodes":"95","size_leaf_vector":"1"}},{"base_weights":[-7.633054E-5,-1.110601E-1,1.2728867E-2,-2.054195E-1,-7.691353E-2,-1.1263175E-2,4.453978E-2,1.9022163E-2,-3.346417E-1,-7.5200185E-2,-2.0291247E0,-2.3393338E-3,-5.091851E-2,4.6241302E-2,-4.6808824E-1,5.6518824E-4,4.7540322E-1,-3.934691E-1,3.3740118E-1,-8.724E-2,1.7213193E-1,-3.310939E-1,-7.684938E-1,-6.155532E-3,2.3468177E-1,-2.3013628E-1,-4.5706905E-2,2.6581818E-2,9.306306E-2,-6.58084E-1,-2.8156567E-1,2.0281427E-2,-7.390771E-2,6.018154E-1,2.2840293E-1,-3.5680285E-1,-1.1754044E0,-5.7717854E-1,8.0449575E-1,-7.353642E-2,-1.1917226E0,-8.491214E-2,5.766049E-1,-3.2359E-2,2.0509055E-2,2.1030422E-1,2.558245E-1,-1.456685E-1,-2.4892814E-3,-3.1665E-2,-1.0795565E-1,5.06809E-1,2.4190152E-2,2.5616163E-1,8.2515016E-2,-3.8564196E-1,-1.5178668E0,-7.696943E-2,-7.811084E-1,4.354034E-3,2.5825715E-2,-1.7199755E-2,-5.2546073E-2,1.3632962E-1,2.5037956E-1,1.9729254E-1,-6.521653E-2,-1.7458898E-1,-7.943012E-2,-3.0877903E-1,-3.872547E-1,1.4212154E-1,-3.6461905E-1,3.0775693E-1,-3.24749E-1,-1.035868E-2,-4.651259E-2,-4.4344553E-1,-2.0413907E-2,8.789687E-2,-2.4245965E-1,2.1089633E-1,-5.5740055E-2,-8.74608E-3,-9.401503E-2,2.4618337E-2,-2.0955147E-3,9.062361E-2,3.330577E-2,4.8550047E-2,9.751038E-2,-1.2984967E-2,6.361506E-2,-7.396475E-2,6.870154E-3,2.5313166E-1,3.3895325E-2,-2.4703685E-2,9.36947E-3,1.0012328E-1,3.4927614E-2,-9.258134E-3,2.8445104E-2,-7.885823E-2,-1.4645787E-1,-3.2410705E-1,-8.776058E-1,2.325464E-3,-4.8691925E-1,-4.5016629E-1,9.363656E-2],"categories":[],"categories_nodes":[],"categories_segments":[],"categories_sizes":[],"default_left":[0,0,0,0,0,0,0,0,0,0,0,0,0,0,0,0,0,0,0,0,0,0,0,0,0,0,0,0,0,0,0,0,0,0,0,0,0,0,0,0,0,0,0,0,0,0,0,0,0,0,0,0,0,0,0,0,0,0,0,0,0,0,0,0,0,0,0,0,0,0,0,0,0,0,0,0,0,0,0,0,0,0,0,0,0,0,0,0,0,0,0,0,0,0,0,0,0,0,0,0,0,0,0,0,0,0,0,0,0,0,0],"id":11,"left_children":[1,3,5,7,9,11,13,15,17,19,21,23,25,27,29,31,33,35,37,39,41,-1,-1,43,45,47,49,51,53,55,57,59,61,63,65,67,69,71,73,75,77,79,81,83,85,87,89,-1,-1,91,93,95,97,99,101,103,105,107,109,-1,-1,-1,-1,-1,-1,-1,-1,-1,-1,-1,-1,-1,-1,-1,-1,-1,-1,-1,-1,-1,-1,-1,-1,-1,-1,-1,-1,-1,-1,-1,-1,-1,-1,-1,-1,-1,-1,-1,-1,-1,-1,-1,-1,-1,-1,-1,-1,-1,-1,-1,-1],"loss_changes":[1.7079242E2,4.003946E1,8.223306E1,9.5794754E1,3.0385101E1,2.1735823E1,4.0428253E1,1.01726885E1,8.299812E1,2.718155E1,1.0994072E0,4.5354176E1,1.0527943E1,4.2498756E1,5.2489357E0,1.7073377E0,1.3282595E0,5.4851196E1,7.2765564E1,1.3159164E2,4.4111813E1,0E0,0E0,3.4479378E1,3.5570526E-1,1.8048162E1,9.581356E0,3.7338234E1,2.3467827E1,1.7033394E1,8.026961E0,3.4769955E-1,3.98427E-1,6.6504574E-1,3.4921994E0,3.8035294E1,1.2081146E-1,3.9341988E1,4.8080643E1,2.7319508E1,3.4194717E1,7.130439E1,1.6010765E1,2.2410688E1,4.1392525E1,3.3802185E0,2.6852245E0,0E0,0E0,2.5347351E1,3.6601143E1,2.1284065E1,2.4277664E1,8.947266E0,1.7891273E1,6.077366E-1,7.774967E0,7.5108576E0,1.846538E1,0E0,0E0,0E0,0E0,0E0,0E0,0E0,0E0,0E0,0E0,0E0,0E0,0E0,0E0,0E0,0E0,0E0,0E0,0E0,0E0,0E0,0E0,0E0,0E0,0E0,0E0,0E0,0E0,0E0,0E0,0E0,0E0,0E0,0E0,0E0,0E0,0E0,0E0,0E0,0E0,0E0,0E0,0E0,0E0,0E0,0E0,0E0,0E0,0E0,0E0,0E0,0E0],"parents":[2147483647,0,0,1,1,2,2,3,3,4,4,5,5,6,6,7,7,8,8,9,9,10,10,11,11,12,12,13,13,14,14,15,15,16,16,17,17,18,18,19,19,20,20,23,23,24,24,25,25,26,26,27,27,28,28,29,29,30,30,31,31,32,32,33,33,34,34,35,35,36,36,37,37,38,38,39,39,40,40,41,41,42,42,43,43,44,44,45,45,46,46,49,49,50,50,51,51,52,52,53,53,54,54,55,55,56,56,57,57,58,58],"right_children":[2,4,6,8,10,12,14,16,18,20,22,24,26,28,30,32,34,36,38,40,42,-1,-1,44,46,48,50,52,54,56,58,60,62,64,66,68,70,72,74,76,78,80,82,84,86,88,90,-1,-1,92,94,96,98,100,102,104,106,108,110,-1,-1,-1,-1,-1,-1,-1,-1,-1,-1,-1,-1,-1,-1,-1,-1,-1,-1,-1,-1,-1,-1,-1,-1,-1,-1,-1,-1,-1,-1,-1,-1,-1,-1,-1,-1,-1,-1,-1,-1,-1,-1,-1,-1,-1,-1,-1,-1,-1,-1,-1,-1],"split_conditions":[2.7119375E4,1.2596333E4,4E0,6.575E2,2.5E1,2.7072762E5,6.814905E5,4E0,6E0,8E0,2.31035E4,2.58827E5,2.7669916E5,1.87675E5,7.573575E5,1.255E2,1.255E2,1.22555E4,9.22675E3,7E0,2.46635E4,-3.310939E-1,-7.684938E-1,8.58435E4,2.645495E5,3E0,5.959837E5,2.7566E4,1.9472525E5,5E0,8.52342E5,3E0,3E0,6E0,5E0,6.42E3,3E0,2.4605E3,9E0,2.31035E4,2.63E4,2.0831E4,1.4E1,8.46305E4,1.1327E5,3E0,3E0,-1.456685E-1,-2.4892814E-3,5.738105E5,7.169245E5,5E0,3.6289E4,7E0,2.10099E5,7.169245E5,7.169245E5,6E0,6E0,4.354034E-3,2.5825715E-2,-1.7199755E-2,-5.2546073E-2,1.3632962E-1,2.5037956E-1,1.9729254E-1,-6.521653E-2,-1.7458898E-1,-7.943012E-2,-3.0877903E-1,-3.872547E-1,1.4212154E-1,-3.6461905E-1,3.0775693E-1,-3.24749E-1,-1.035868E-2,-4.651259E-2,-4.4344553E-1,-2.0413907E-2,8.789687E-2,-2.4245965E-1,2.1089633E-1,-5.5740055E-2,-8.74608E-3,-9.401503E-2,2.4618337E-2,-2.0955147E-3,9.062361E-2,3.330577E-2,4.8550047E-2,9.751038E-2,-1.2984967E-2,6.361506E-2,-7.396475E-2,6.870154E-3,2.5313166E-1,3.3895325E-2,-2.4703685E-2,9.36947E-3,1.0012328E-1,3.4927614E-2,-9.258134E-3,2.8445104E-2,-7.885823E-2,-1.4645787E-1,-3.2410705E-1,-8.776058E-1,2.325464E-3,-4.8691925E-1,-4.5016629E-1,9.363656E-2],"split_indices":[1,1,0,1,0,1,1,0,0,0,1,1,1,1,1,1,1,1,1,0,1,0,0,1,1,0,1,1,1,0,1,0,0,0,0,1,0,1,0,1,1,1,0,1,1,0,0,0,0,1,1,0,1,0,1,1,1,0,0,0,0,0,0,0,0,0,0,0,0,0,0,0,0,0,0,0,0,0,0,0,0,0,0,0,0,0,0,0,0,0,0,0,0,0,0,0,0,0,0,0,0,0,0,0,0,0,0,0,0,0,0],"split_type":[0,0,0,0,0,0,0,0,0,0,0,0,0,0,0,0,0,0,0,0,0,0,0,0,0,0,0,0,0,0,0,0,0,0,0,0,0,0,0,0,0,0,0,0,0,0,0,0,0,0,0,0,0,0,0,0,0,0,0,0,0,0,0,0,0,0,0,0,0,0,0,0,0,0,0,0,0,0,0,0,0,0,0,0,0,0,0,0,0,0,0,0,0,0,0,0,0,0,0,0,0,0,0,0,0,0,0,0,0,0,0],"sum_hessian":[1.2017542E5,1.2430605E4,1.0774481E5,3.301724E3,9.128881E3,6.142115E4,4.6323668E4,1.2067001E3,2.095024E3,9.121914E3,6.967258E0,5.013914E4,1.1282007E4,4.6171324E4,1.5234274E2,1.1607579E3,4.5942165E1,1.9267776E3,1.6824632E2,8.6991E3,4.228142E2,3.6669266E0,3.300331E0,4.9345617E4,7.9352344E2,3.1758737E2,1.096442E4,3.2518887E4,1.3652439E4,7.421632E1,7.812643E1,9.1835645E2,2.424015E2,2.9439062E1,1.6503103E1,1.8418658E3,8.491185E1,5.6798378E1,1.11447945E2,8.593544E3,1.0555563E2,2.590054E2,1.638088E2,2.4887898E4,2.4457719E4,3.736512E2,4.1987222E2,1.4706624E2,1.7052112E2,8.947562E3,2.0168579E3,1.6010547E2,3.2358781E4,8.278932E2,1.2824546E4,5.745797E1,1.6758345E1,5.624458E1,2.1881844E1,8.454687E2,7.2887794E1,2.0964612E2,3.2755386E1,1.9833763E1,9.605298E0,8.165536E0,8.337567E0,5.3288043E2,1.3089854E3,4.1849823E1,4.3062023E1,2.1557919E1,3.524046E1,1.0015522E2,1.1292723E1,5.812961E3,2.7805833E3,8.386316E1,2.1692474E1,1.7051164E2,8.8493744E1,1.4058257E2,2.3226246E1,2.4608316E4,2.7958203E2,7.55101E3,1.6906709E4,1.9310826E2,1.8054295E2,1.7947446E2,2.4039775E2,8.541214E3,4.063482E2,9.790422E2,1.0378157E3,8.566581E1,7.443965E1,2.0054758E3,3.0353305E4,5.314434E2,2.9644977E2,1.2551891E3,1.1569357E4,2.7771353E1,2.9686617E1,1.413281E1,2.6255348E0,5.426597E1,1.9786125E0,1.2972296E1,8.909549E0],"tree_param":{"num_deleted":"0","num_feature":"2","num_nodes":"111","size_leaf_vector":"1"}},{"base_weights":[-2.0399362E-4,-1.1426258E-1,6.7865043E-3,-1.0317013E-1,-5.039231E-1,-2.6928825E-2,2.0977803E-2,-1.16643205E-1,2.1654473E-1,-8.327418E-1,2.1519093E-1,-4.448505E-2,-8.31746E-3,2.002712E-2,3.3174863E-1,1.4287374E-2,-1.465297E-1,3.0594823E-1,-3.6795643E-1,-1.655865E-1,-4.085113E-1,4.517562E-1,-4.1281444E-1,-4.0980283E-2,-1.2329182E-1,2.5619447E-1,-2.5260948E-2,2.4302563E-1,1.8936392E-2,3.618267E-1,-3.4474778E-1,3.6084995E-4,3.9879772E-1,-4.683023E-1,-1.1350784E-1,1.8885934E-1,2.8364375E-1,-1.127886E-1,5.5836153E-1,-3.4466475E-2,-1.3327126E-1,1.1185614E-1,2.1472737E-1,-2.5727665E-1,-1.6339345E-2,-9.485859E-2,5.182184E-1,-3.686646E-2,2.3091866E-2,6.0936624E-1,2.7885622E-1,-8.248775E-1,1.8364163E-1,4.2924895E-3,-1.580038E-2,8.3184175E-2,2.026286E-1,-1.0106849E-1,-3.055352E-1,1.18401796E-1,-3.9798785E-2,4.6571787E-2,6.709083E-2,1.3066281E-1,-3.937901E-1,-1.2286531E-2,1.0765566E-1,-6.1109878E-2,4.54485E-2,4.1419912E-2,1.0002488E-1,1.4836285E-1,-7.852062E-3,3.477132E-2,-4.7706345E-1,9.55823E-3,3.918453E-1,3.7059698E-3,-5.6378525E-2,4.8941458E-3,1.4899902E-2,-2.6542315E-1,1.966428E-1,-1.2228119E-2,1.4051852E-1,-4.5945466E-1,2.1177617E-1],"categories":[],"categories_nodes":[],"categories_segments":[],"categories_sizes":[],"default_left":[0,0,0,0,0,0,0,0,0,0,0,0,0,0,0,0,0,0,0,0,0,0,0,0,0,0,0,0,0,0,0,0,0,0,0,0,0,0,0,0,0,0,0,0,0,0,0,0,0,0,0,0,0,0,0,0,0,0,0,0,0,0,0,0,0,0,0,0,0,0,0,0,0,0,0,0,0,0,0,0,0,0,0,0,0,0,0],"id":12,"left_children":[1,3,5,7,9,11,13,15,17,19,21,23,25,27,29,31,33,35,-1,-1,-1,37,-1,39,-1,41,43,45,47,49,51,53,55,57,59,61,-1,63,-1,65,67,-1,69,-1,71,73,75,77,79,81,83,-1,85,-1,-1,-1,-1,-1,-1,-1,-1,-1,-1,-1,-1,-1,-1,-1,-1,-1,-1,-1,-1,-1,-1,-1,-1,-1,-1,-1,-1,-1,-1,-1,-1,-1,-1],"loss_changes":[9.519262E1,2.9748787E1,5.3825474E1,2.8907753E1,4.5243484E1,1.0888313E1,2.338414E1,2.5181076E1,3.540069E1,1.8703156E1,2.3431408E1,2.200925E1,7.250992E1,1.9193853E1,5.036501E0,6.408213E0,5.5612747E1,1.9024563E1,0E0,0E0,0E0,4.2783688E1,0E0,1.0207336E1,0E0,4.6315117E0,1.12890045E2,3.5764328E1,1.8215124E1,4.5868664E0,1.4212994E1,8.5567653E-1,1.21879E0,3.488407E1,4.631458E1,2.201786E-1,0E0,2.6326288E1,0E0,4.051227E1,2.2483702E1,0E0,6.513397E0,0E0,7.55971E1,5.478923E1,8.1140945E1,4.0481396E1,1.3167034E1,4.5273285E0,1.0639095E1,0E0,9.843686E0,0E0,0E0,0E0,0E0,0E0,0E0,0E0,0E0,0E0,0E0,0E0,0E0,0E0,0E0,0E0,0E0,0E0,0E0,0E0,0E0,0E0,0E0,0E0,0E0,0E0,0E0,0E0,0E0,0E0,0E0,0E0,0E0,0E0,0E0],"parents":[2147483647,0,0,1,1,2,2,3,3,4,4,5,5,6,6,7,7,8,8,9,9,10,10,11,11,12,12,13,13,14,14,15,15,16,16,17,17,21,21,23,23,25,25,26,26,27,27,28,28,29,29,30,30,31,31,32,32,33,33,34,34,35,35,37,37,39,39,40,40,42,42,44,44,45,45,46,46,47,47,48,48,49,49,50,50,52,52],"right_children":[2,4,6,8,10,12,14,16,18,20,22,24,26,28,30,32,34,36,-1,-1,-1,38,-1,40,-1,42,44,46,48,50,52,54,56,58,60,62,-1,64,-1,66,68,-1,70,-1,72,74,76,78,80,82,84,-1,86,-1,-1,-1,-1,-1,-1,-1,-1,-1,-1,-1,-1,-1,-1,-1,-1,-1,-1,-1,-1,-1,-1,-1,-1,-1,-1,-1,-1,-1,-1,-1,-1,-1,-1],"split_conditions":[2.0084E4,1.9742334E4,3E0,1.9402E4,4E0,1.03482336E5,3.5E1,6.575E2,5E0,3E0,7E0,1.01959E5,1.098995E5,2.0831E4,6.4E1,4E0,6.42E3,4E0,-3.6795643E-1,-1.655865E-1,-4.085113E-1,6E0,-4.1281444E-1,9.34545E4,-1.2329182E-1,1.05050664E5,1.1159175E5,2.0451E4,3.269E4,5.5552168E4,6.7E1,1.255E2,7E0,5.3875E3,7.4885E3,3E0,2.8364375E-1,5E0,5.5836153E-1,9.2115664E4,1.005E5,1.1185614E-1,1.08276664E5,-2.5727665E-1,1.1327E5,5E0,5E0,5E0,7E0,2.4277E4,1.08276664E5,-8.248775E-1,7.33875E4,4.2924895E-3,-1.580038E-2,8.3184175E-2,2.026286E-1,-1.0106849E-1,-3.055352E-1,1.18401796E-1,-3.9798785E-2,4.6571787E-2,6.709083E-2,1.3066281E-1,-3.937901E-1,-1.2286531E-2,1.0765566E-1,-6.1109878E-2,4.54485E-2,4.1419912E-2,1.0002488E-1,1.4836285E-1,-7.852062E-3,3.477132E-2,-4.7706345E-1,9.55823E-3,3.918453E-1,3.7059698E-3,-5.6378525E-2,4.8941458E-3,1.4899902E-2,-2.6542315E-1,1.966428E-1,-1.2228119E-2,1.4051852E-1,-4.5945466E-1,2.1177617E-1],"split_indices":[1,1,0,1,0,1,0,1,0,0,0,1,1,1,0,0,1,0,0,0,0,0,0,1,0,1,1,1,1,1,0,1,0,1,1,0,0,0,0,1,1,0,1,0,1,0,0,0,0,1,1,0,1,0,0,0,0,0,0,0,0,0,0,0,0,0,0,0,0,0,0,0,0,0,0,0,0,0,0,0,0,0,0,0,0,0,0],"split_type":[0,0,0,0,0,0,0,0,0,0,0,0,0,0,0,0,0,0,0,0,0,0,0,0,0,0,0,0,0,0,0,0,0,0,0,0,0,0,0,0,0,0,0,0,0,0,0,0,0,0,0,0,0,0,0,0,0,0,0,0,0,0,0,0,0,0,0,0,0,0,0,0,0,0,0,0,0,0,0,0,0,0,0,0,0,0,0],"sum_hessian":[1.1938781E5,6.893674E3,1.1249413E5,6.7040938E3,1.8958041E2,3.332368E4,7.917045E4,6.4336104E3,2.7048312E2,1.2998575E2,5.9594673E1,1.714721E4,1.617647E4,7.893006E4,2.4039162E2,1.1957292E3,5.2378813E3,2.554453E2,1.503783E1,8.624707E1,4.3738674E1,5.2504993E1,7.0896807E0,1.6985885E4,1.6132632E2,9.72966E2,1.5203504E4,3.8310306E2,7.854696E4,2.3060378E2,9.7878475E0,1.154901E3,4.082825E1,4.8627966E2,4.7516016E3,2.1700932E2,3.8435966E1,3.81459E1,1.4359095E1,1.5867355E4,1.1185292E3,2.5305511E2,7.1991095E2,1.6022708E2,1.5043276E4,1.7225818E2,2.1084488E2,5.443232E3,7.310373E4,5.6297558E1,1.7430621E2,1.0059183E0,8.781929E0,9.1497705E2,2.3992393E2,2.9758446E1,1.1069806E1,3.93824E2,9.245566E1,1.7188371E2,4.579718E3,1.1311777E2,1.03891556E2,2.6618292E1,1.1527607E1,1.561072E4,2.56636E2,8.9697437E2,2.2155481E2,4.3871115E2,2.8119977E2,2.8317484E2,1.4760102E4,1.51787E2,2.0471176E1,1.3101517E2,7.982972E1,4.1062373E3,1.3369948E3,5.8248555E4,1.4855175E4,1.1408961E0,5.5156662E1,6.517964E1,1.0912657E2,1.5988748E0,7.183055E0],"tree_param":{"num_deleted":"0","num_feature":"2","num_nodes":"87","size_leaf_vector":"1"}},{"base_weights":[-2.7669867E-4,-1.337572E-1,3.2243072E-3,-1.0932889E-1,-3.396032E-1,-2.3089685E-2,1.4533648E-2,-1.3766046E-1,3.5114262E-1,-1.0544267E-1,-1.6248282E-2,1.206351E-2,9.6592285E-2,3.5385E-3,-2.4733597E-1,-2.4842982E-1,6.818238E-1,-8.413987E-2,-3.786525E-1,1.0239457E-1,-1.801786E-2,2.738474E-1,1.1246887E-2,1.001187E-1,-1.1524689E0,-2.0554638E-2,1.7159683E-1,-3.0293128E-1,-2.194247E-1,4.4982958E-1,-3.4181562E-1,1.8987039E0,4.833728E-1,-1.04468845E-1,8.076751E-2,-1.723217E-1,-6.2539935E-2,-1.15384884E-1,-1.662234E-2,3.4626347E-1,-3.3746383E-1,1.3895895E-3,2.3607703E-2,6.605487E-2,2.9235098E-1,-6.775239E-5,-2.9278135E-1,1.5367984E-2,2.3144211E-1,-7.645989E-2,8.080444E-2,-5.9093725E-2,3.7680358E-1,7.072495E-1,-2.702215E-1,-4.1128713E-1,2.3813947E-1,-1.2864952E-1,-2.7797217E-2,6.492707E-2,-5.60522E-3,1.2996678E-1,-1.3287854E-2,1.1930359E-3,-1.686397E-2,4.286132E-2,4.6445536E-3,2.3225207E-2,-4.0902415E-1,6.623976E-2,1.460185E-1],"categories":[],"categories_nodes":[],"categories_segments":[],"categories_sizes":[],"default_left":[0,0,0,0,0,0,0,0,0,0,0,0,0,0,0,0,0,0,0,0,0,0,0,0,0,0,0,0,0,0,0,0,0,0,0,0,0,0,0,0,0,0,0,0,0,0,0,0,0,0,0,0,0,0,0,0,0,0,0,0,0,0,0,0,0,0,0,0,0,0,0],"id":13,"left_children":[1,3,5,7,-1,9,11,13,15,17,19,21,23,25,27,29,31,33,35,-1,37,39,41,43,-1,45,47,-1,49,51,-1,53,55,57,-1,-1,-1,-1,59,61,-1,63,65,67,69,-1,-1,-1,-1,-1,-1,-1,-1,-1,-1,-1,-1,-1,-1,-1,-1,-1,-1,-1,-1,-1,-1,-1,-1,-1,-1],"loss_changes":[5.5500053E1,7.389604E1,3.444032E1,3.8716152E1,0E0,1.959793E1,1.6405386E1,4.3252037E1,3.4286743E1,1.549683E1,2.0329935E1,1.679509E1,3.3230988E1,4.951345E0,3.3230125E1,3.9022934E1,2.5930107E1,1.7817415E1,6.300091E0,0E0,1.6345835E1,2.5136084E1,9.544525E0,1.5460733E1,0E0,2.0774189E1,1.103167E1,0E0,2.6359657E1,1.8717472E1,0E0,2.1706219E1,5.688333E1,8.934454E0,0E0,0E0,0E0,0E0,1.5303881E1,7.9341946E0,0E0,6.4951534E0,3.367817E1,3.2743942E1,4.8376713E0,0E0,0E0,0E0,0E0,0E0,0E0,0E0,0E0,0E0,0E0,0E0,0E0,0E0,0E0,0E0,0E0,0E0,0E0,0E0,0E0,0E0,0E0,0E0,0E0,0E0,0E0],"parents":[2147483647,0,0,1,1,2,2,3,3,5,5,6,6,7,7,8,8,9,9,10,10,11,11,12,12,13,13,14,14,15,15,16,16,17,17,18,18,20,20,21,21,22,22,23,23,25,25,26,26,28,28,29,29,31,31,32,32,33,33,38,38,39,39,41,41,42,42,43,43,44,44],"right_children":[2,4,6,8,-1,10,12,14,16,18,20,22,24,26,28,30,32,34,36,-1,38,40,42,44,-1,46,48,-1,50,52,-1,54,56,58,-1,-1,-1,-1,60,62,-1,64,66,68,70,-1,-1,-1,-1,-1,-1,-1,-1,-1,-1,-1,-1,-1,-1,-1,-1,-1,-1,-1,-1,-1,-1,-1,-1,-1,-1],"split_conditions":[1.2596333E4,1.22555E4,3E0,6E0,-3.396032E-1,2.38685E4,1.6E1,1.27E3,9.22675E3,2.31035E4,2.4277E4,1.3594E4,4.252955E5,3E0,2.4605E3,2.4605E3,9.571E3,2.2722334E4,2.3480334E4,1.0239457E-1,2.46635E4,6E0,1.204609E5,1.9839086E5,-1.1524689E0,6.575E2,6.575E2,-3.0293128E-1,1.193E4,1.9148E3,-3.4181562E-1,7E0,1.02595E4,1.32585E4,8.076751E-2,-1.723217E-1,-6.2539935E-2,-1.15384884E-1,2.5471666E4,4E0,-3.3746383E-1,1.1327E5,1.28401E5,1.9472525E5,2.89341E5,-6.775239E-5,-2.9278135E-1,1.5367984E-2,2.3144211E-1,-7.645989E-2,8.080444E-2,-5.9093725E-2,3.7680358E-1,7.072495E-1,-2.702215E-1,-4.1128713E-1,2.3813947E-1,-1.2864952E-1,-2.7797217E-2,6.492707E-2,-5.60522E-3,1.2996678E-1,-1.3287854E-2,1.1930359E-3,-1.686397E-2,4.286132E-2,4.6445536E-3,2.3225207E-2,-4.0902415E-1,6.623976E-2,1.460185E-1],"split_indices":[1,1,0,0,0,1,0,1,1,1,1,1,1,0,1,1,1,1,1,0,1,0,1,1,0,1,1,0,1,1,0,0,1,1,0,0,0,0,1,0,0,1,1,1,1,0,0,0,0,0,0,0,0,0,0,0,0,0,0,0,0,0,0,0,0,0,0,0,0,0,0],"split_type":[0,0,0,0,0,0,0,0,0,0,0,0,0,0,0,0,0,0,0,0,0,0,0,0,0,0,0,0,0,0,0,0,0,0,0,0,0,0,0,0,0,0,0,0,0,0,0,0,0,0,0,0,0,0,0,0,0,0,0,0,0,0,0,0,0,0,0,0,0,0,0],"sum_hessian":[1.187615E5,3.0343835E3,1.1572712E5,2.9629856E3,7.139787E1,3.478654E4,8.094057E4,2.7919082E3,1.7107758E2,2.6670977E3,3.2119443E4,7.857641E4,2.364169E3,1.2209695E3,1.5709387E3,6.090208E1,1.1017549E2,2.4753936E3,1.9170413E2,1.5723108E2,3.196221E4,2.4331342E2,7.833309E4,2.3630276E3,1.1413876E0,1.0686444E3,1.5232506E2,5.4235783E1,1.5167029E3,3.442088E1,2.6481205E1,1.424697E1,9.592852E1,2.341398E3,1.3399554E2,8.805057E1,1.0365357E2,1.2016688E2,3.1842045E4,2.3205188E2,1.1261543E1,4.3580418E4,3.4752676E4,2.008468E3,3.545596E2,1.0473588E3,2.1285631E1,1.2777196E2,2.4553097E1,1.4146063E3,1.0209654E2,1.951747E1,1.4903409E1,1.2376484E1,1.8704863E0,1.3266218E1,8.26623E1,8.102434E1,2.2603735E3,2.7832007E2,3.1563725E4,1.8970416E2,4.2347713E1,4.1708055E4,1.8723616E3,2.2157332E3,3.2536941E4,1.9935675E3,1.4900508E1,2.6072183E2,9.3837776E1],"tree_param":{"num_deleted":"0","num_feature":"2","num_nodes":"71","size_leaf_vector":"1"}},{"base_weights":[-3.229091E-4,-5.1002678E-2,5.287735E-3,-4.9956746E-2,-4.454142E-1,1.5136936E-1,4.093904E-3,-5.3068615E-2,6.6053176E-1,1.6354704E-1,-9.5504636E-1,-6.201584E-3,1.786912E-2,-5.0378766E-2,-4.7055247E-1,-2.9745921E-1,7.7283245E-1,1.4892165E-1,3.6486232E-1,2.5024682E-3,-3.2101803E-2,1.9118201E-2,-3.4227407E-1,-5.7490684E-2,1.5682325E-1,1.0716076E0,3.2242623E-1,1.6942775E-1,-7.0656204E-1,-1.6328756E-2,3.1719293E-2,-2.413444E-1,-2.4162779E-2,4.8597227E-3,5.340488E-2,-3.163461E-1,-4.1523147E-1,-1.4958587E-2,-2.2119276E-1,-2.0104405E-2,1.7024949E-1,1.8243071E-1,4.663771E-1,-5.371725E-1,2.636398E-1,3.7074037E-2,2.1358185E-1,-3.4956832E-3,-4.0558465E-2,2.7989922E-2,3.908439E-3,-1.4254288E-1,-2.290811E-2,-3.941268E-3,-2.00574E-2,1.0227377E-3,7.19147E-2,5.3868316E-2,1.3665467E-2,-1.2700693E-1,-5.9961446E-2],"categories":[],"categories_nodes":[],"categories_segments":[],"categories_sizes":[],"default_left":[0,0,0,0,0,0,0,0,0,0,0,0,0,0,0,0,0,0,0,0,0,0,0,0,0,0,0,0,0,0,0,0,0,0,0,0,0,0,0,0,0,0,0,0,0,0,0,0,0,0,0,0,0,0,0,0,0,0,0,0,0],"id":14,"left_children":[1,3,5,7,-1,9,11,13,15,17,-1,19,21,23,-1,-1,25,27,-1,29,31,33,35,37,39,41,43,45,-1,47,49,51,53,55,57,59,-1,-1,-1,-1,-1,-1,-1,-1,-1,-1,-1,-1,-1,-1,-1,-1,-1,-1,-1,-1,-1,-1,-1,-1,-1],"loss_changes":[3.3646748E1,1.7612225E1,1.85789E1,2.609502E1,0E0,3.559068E1,1.4986982E1,4.7761738E1,1.0316183E1,1.3080219E1,0E0,1.363352E1,2.0339092E1,1.7274569E1,0E0,0E0,6.2161064E0,4.408288E1,0E0,2.4904842E1,2.5263378E1,2.20204E1,3.7834797E0,5.8714413E1,3.58038E1,5.5207596E0,2.6115631E1,2.0922937E1,0E0,1.5299008E1,2.0418676E1,2.1408184E1,6.8983564E0,1.0837822E1,1.3099262E1,1.8320312E0,0E0,0E0,0E0,0E0,0E0,0E0,0E0,0E0,0E0,0E0,0E0,0E0,0E0,0E0,0E0,0E0,0E0,0E0,0E0,0E0,0E0,0E0,0E0,0E0,0E0],"parents":[2147483647,0,0,1,1,2,2,3,3,5,5,6,6,7,7,8,8,9,9,11,11,12,12,13,13,16,16,17,17,19,19,20,20,21,21,22,22,23,23,24,24,25,25,26,26,27,27,29,29,30,30,31,31,32,32,33,33,34,34,35,35],"right_children":[2,4,6,8,-1,10,12,14,16,18,-1,20,22,24,-1,-1,26,28,-1,30,32,34,36,38,40,42,44,46,-1,48,50,52,54,56,58,60,-1,-1,-1,-1,-1,-1,-1,-1,-1,-1,-1,-1,-1,-1,-1,-1,-1,-1,-1,-1,-1,-1,-1,-1,-1],"split_conditions":[2.7119375E4,2.5E1,2.80205E4,1.8E1,-4.454142E-1,1.6E1,4E0,1.4E1,1.6949E4,1.5E1,-9.5504636E-1,2.10099E5,6.814905E5,8E0,-4.7055247E-1,-2.9745921E-1,2.38685E4,1E1,3.6486232E-1,9.7585E4,2.18658E5,1.87675E5,7E0,7E0,2.46635E4,2.3480334E4,2.5871E4,7E0,-7.0656204E-1,9.34545E4,1.1327E5,3E0,5.332077E5,3.5E1,1.9472525E5,7.573575E5,-4.1523147E-1,-1.4958587E-2,-2.2119276E-1,-2.0104405E-2,1.7024949E-1,1.8243071E-1,4.663771E-1,-5.371725E-1,2.636398E-1,3.7074037E-2,2.1358185E-1,-3.4956832E-3,-4.0558465E-2,2.7989922E-2,3.908439E-3,-1.4254288E-1,-2.290811E-2,-3.941268E-3,-2.00574E-2,1.0227377E-3,7.19147E-2,5.3868316E-2,1.3665467E-2,-1.2700693E-1,-5.9961446E-2],"split_indices":[1,0,1,0,0,0,0,0,1,0,0,1,1,0,0,0,1,0,0,1,1,1,0,0,1,1,1,0,0,1,1,0,1,0,1,1,0,0,0,0,0,0,0,0,0,0,0,0,0,0,0,0,0,0,0,0,0,0,0,0,0],"split_type":[0,0,0,0,0,0,0,0,0,0,0,0,0,0,0,0,0,0,0,0,0,0,0,0,0,0,0,0,0,0,0,0,0,0,0,0,0,0,0,0,0,0,0,0,0,0,0,0,0,0,0,0,0,0,0,0,0,0,0,0,0],"sum_hessian":[1.183283E5,1.179335E4,1.06534945E5,1.1785786E4,7.563218E0,8.625639E2,1.0567238E5,1.17353125E4,5.0474197E1,8.603731E2,2.1908095E0,6.0474656E4,4.5197727E4,1.1715551E4,1.976142E1,2.7143273E0,4.7759872E1,8.497089E2,1.0664165E1,4.526407E4,1.5210584E4,4.5042453E4,1.5527328E2,1.1327474E4,3.8807706E2,2.788396E1,1.9875912E1,8.43732E2,5.976913E0,2.7524225E4,1.7739846E4,5.5494464E2,1.4655639E4,3.1813582E4,1.3228873E4,1.5277484E2,2.4984484E0,1.1202832E4,1.2464165E2,2.5171623E2,1.3636081E2,1.5381661E1,1.2502299E1,3.680346E0,1.6195566E1,7.791167E2,6.4615326E1,2.6483402E4,1.0408225E3,4.129776E3,1.361007E4,2.2881354E2,3.261311E2,1.16488545E4,3.0067844E3,3.1619299E4,1.942834E2,7.739673E2,1.2454905E4,7.8249176E1,7.4525665E1],"tree_param":{"num_deleted":"0","num_feature":"2","num_nodes":"61","size_leaf_vector":"1"}},{"base_weights":[-2.381539E-4,-8.978039E-2,1.7900638E-3,2.4640417E-2,-1.8592921E-1,-1.3602787E-2,8.406388E-3,1.8903717E-2,6.308483E-1,-1.711509E-1,-3.934742E-1,-5.5879187E-2,-8.425318E-3,2.4367535E-1,7.965583E-3,1.3836791E-2,2.203498E-1,2.3336351E-1,-8.135725E-2,-2.10592E-1,3.6180732E-1,-3.888462E-2,-2.4008028E-1,9.611339E-2,-1.1342788E-2,4.2636327E-2,8.1960607E-1,-3.376165E-1,8.429432E-3,2.3746816E-2,-2.4705002E-2,4.16877E-1,-1.8244937E-1,-1.8213262E-1,-5.7884544E-1,-2.5422806E-1,6.9539E-1,-6.401003E-2,4.6517856E-2,-1.9959874E-1,-4.6048954E-2,-1.1255459E-1,-8.501607E-3,2.4484013E-1,-3.1830984E-1,9.634049E-1,-2.5172815E-1,1.577105E-1,7.5176274E-3,6.2490036E-3,1.7338557E-2,-3.1569225E-3,-3.3301257E-2,9.68978E-2,2.2230777E-1,1.5189435E-1,-5.062948E-1,-7.947914E-2,1.6752245E-3,9.583248E-3,-3.2342196E-1,1.2514086E-1,-3.2116315E-1,2.6480705E-1,-4.1857383E-1,-1.45775955E-2,-8.510849E-2,7.1857244E-2,-1.5497782E-3,6.557888E-2,-8.971982E-2,1.0459857E-1,-3.1044774E-3,-3.3559196E-2,1.5765528E-1,1.713914E-1,4.4964275E-1,1.1186951E-1,-2.0771466E-1,-1.7636453E-1,2.409083E-3],"categories":[],"categories_nodes":[],"categories_segments":[],"categories_sizes":[],"default_left":[0,0,0,0,0,0,0,0,0,0,0,0,0,0,0,0,0,0,0,0,0,0,0,0,0,0,0,0,0,0,0,0,0,0,0,0,0,0,0,0,0,0,0,0,0,0,0,0,0,0,0,0,0,0,0,0,0,0,0,0,0,0,0,0,0,0,0,0,0,0,0,0,0,0,0,0,0,0,0,0,0],"id":15,"left_children":[1,3,5,7,9,11,13,15,17,19,-1,21,23,25,27,29,31,-1,-1,33,35,37,39,-1,41,43,45,-1,47,49,51,53,55,57,59,61,63,65,67,-1,69,-1,71,73,-1,75,-1,77,79,-1,-1,-1,-1,-1,-1,-1,-1,-1,-1,-1,-1,-1,-1,-1,-1,-1,-1,-1,-1,-1,-1,-1,-1,-1,-1,-1,-1,-1,-1,-1,-1],"loss_changes":[2.1429897E1,2.8757757E1,1.1751428E1,4.1413426E0,2.3402637E1,7.5920143E0,8.367176E0,1.2055924E0,1.6917233E0,2.9568974E1,0E0,1.1837331E1,2.96488E1,1.743497E1,4.235468E1,4.4217047E-1,2.3706207E0,0E0,0E0,1.3592342E1,2.0119408E1,7.440027E0,2.6328901E1,0E0,3.1663074E1,2.5454617E1,1.0107227E1,0E0,1.0958456E1,9.0180635E-2,2.888414E-1,3.6277747E-1,1.1429597E1,1.8881042E1,2.8484644E1,1.953077E1,2.5988062E1,9.0584345E0,7.866319E0,0E0,1.4826324E1,0E0,2.0051872E1,9.693072E0,0E0,6.7728767E0,0E0,8.966732E1,2.4432253E1,0E0,0E0,0E0,0E0,0E0,0E0,0E0,0E0,0E0,0E0,0E0,0E0,0E0,0E0,0E0,0E0,0E0,0E0,0E0,0E0,0E0,0E0,0E0,0E0,0E0,0E0,0E0,0E0,0E0,0E0,0E0,0E0],"parents":[2147483647,0,0,1,1,2,2,3,3,4,4,5,5,6,6,7,7,8,8,9,9,11,11,12,12,13,13,14,14,15,15,16,16,19,19,20,20,21,21,22,22,24,24,25,25,26,26,28,28,29,29,30,30,31,31,32,32,33,33,34,34,35,35,36,36,37,37,38,38,40,40,42,42,43,43,45,45,47,47,48,48],"right_children":[2,4,6,8,10,12,14,16,18,20,-1,22,24,26,28,30,32,-1,-1,34,36,38,40,-1,42,44,46,-1,48,50,52,54,56,58,60,62,64,66,68,-1,70,-1,72,74,-1,76,-1,78,80,-1,-1,-1,-1,-1,-1,-1,-1,-1,-1,-1,-1,-1,-1,-1,-1,-1,-1,-1,-1,-1,-1,-1,-1,-1,-1,-1,-1,-1,-1,-1,-1],"split_conditions":[1.15975E4,6.575E2,3E0,7E0,8E0,2.7566E4,1.22555E4,4E0,9E0,6E0,-3.934742E-1,2.63E4,2.80205E4,6E0,1.2596333E4,1.255E2,1.255E2,2.3336351E-1,-8.135725E-2,4E0,9.22675E3,2.38685E4,2.6710445E4,9.611339E-2,2.889E4,4E0,9E0,-3.376165E-1,1.45685E4,3E0,3E0,6E0,5E0,3E0,8.5415E3,2.4605E3,1.12565E4,2.31035E4,2.4277E4,-1.9959874E-1,2.7119375E4,-1.1255459E-1,2.9356666E4,1.193E4,-3.1830984E-1,8E0,-2.5172815E-1,4E0,1.4914E4,6.2490036E-3,1.7338557E-2,-3.1569225E-3,-3.3301257E-2,9.68978E-2,2.2230777E-1,1.5189435E-1,-5.062948E-1,-7.947914E-2,1.6752245E-3,9.583248E-3,-3.2342196E-1,1.2514086E-1,-3.2116315E-1,2.6480705E-1,-4.1857383E-1,-1.45775955E-2,-8.510849E-2,7.1857244E-2,-1.5497782E-3,6.557888E-2,-8.971982E-2,1.0459857E-1,-3.1044774E-3,-3.3559196E-2,1.5765528E-1,1.713914E-1,4.4964275E-1,1.1186951E-1,-2.0771466E-1,-1.7636453E-1,2.409083E-3],"split_indices":[1,1,0,0,0,1,1,0,0,0,0,1,1,0,1,1,1,0,0,0,1,1,1,0,1,0,0,0,1,0,0,0,0,0,1,1,1,1,1,0,1,0,1,1,0,0,0,0,1,0,0,0,0,0,0,0,0,0,0,0,0,0,0,0,0,0,0,0,0,0,0,0,0,0,0,0,0,0,0,0,0],"split_type":[0,0,0,0,0,0,0,0,0,0,0,0,0,0,0,0,0,0,0,0,0,0,0,0,0,0,0,0,0,0,0,0,0,0,0,0,0,0,0,0,0,0,0,0,0,0,0,0,0,0,0,0,0,0,0,0,0,0,0,0,0,0,0,0,0,0,0,0,0,0,0,0,0,0,0,0,0,0,0,0,0],"sum_hessian":[1.1799692E5,2.612586E3,1.15384336E5,1.1932803E3,1.4193058E3,3.4686133E4,8.06982E4,1.1831152E3,1.0164938E1,1.4020508E3,1.7255035E1,3.7833726E3,3.0902762E4,1.4988297E2,8.054832E4,1.1551293E3,2.7986013E1,8.858646E0,1.3062916E0,1.3060057E3,9.604497E1,3.464908E3,3.184646E2,2.7083148E2,3.063193E4,1.1189724E2,3.798572E1,3.1960466E1,8.051636E4,9.191719E2,2.3595741E2,1.8785532E1,9.200481E0,1.2137029E3,9.230288E1,3.3822327E1,6.222264E1,2.677452E3,7.8745605E2,9.90195E1,2.1944508E2,2.363326E2,3.0395598E4,9.522853E1,1.6668713E1,3.5341057E1,2.6446662E0,4.8776248E2,8.002859E4,8.481275E2,7.104434E1,2.036179E2,3.23395E1,1.611463E1,2.6709027E0,6.767408E0,2.433073E0,8.419329E2,3.7177002E2,4.1933975E1,5.0368904E1,1.8827217E1,1.4995109E1,5.7636753E1,4.5858884E0,2.5030059E3,1.7444617E2,1.655599E2,6.218961E2,1.0732436E2,1.1212073E2,1.5538068E2,3.0240217E4,4.2199707E1,5.302882E1,2.159392E1,1.3747136E1,3.8968185E2,9.808061E1,6.7861115E1,7.9960734E4],"tree_param":{"num_deleted":"0","num_feature":"2","num_nodes":"81","size_leaf_vector":"1"}},{"base_weights":[-3.102868E-4,-5.306803E-2,1.8193999E-3,-4.600412E-2,-1.1200755E0,1.3978197E-1,7.148496E-4,-5.979108E-2,9.543084E-1,3.600071E-2,-3.5326976E-1,4.2862464E-2,7.1199244E-1,-5.788109E-1,1.4480193E-3,-3.3279017E-2,-3.1503493E-1,8.135284E-2,1.9175036E0,-2.7391005E-2,3.1038314E-1,9.619928E-1,-3.894656E-1,-3.1498575E-1,-3.2386813E-1,-8.1550394E-4,3.5144072E-2,-9.245025E-3,-2.0705588E-1,-7.272714E-2,-8.075603E-1,3.8821456E-1,-3.506283E-1,6.9231266E-1,-3.4687558E-1,5.7991095E-2,-3.5616517E-1,1.4649646E-1,4.658195E-1,1.5683402E0,3.6920484E-2,5.365938E-3,-3.7651148E-1,1.0745686E-3,-3.3893615E-2,-4.1397104E-1,3.778741E-2,-1.2784454E-2,6.714307E-2,-8.1212774E-2,-4.6151695E-3,-2.4073072E-1,6.60605E-2,-1.0303094E-1,-3.6031055E-1,-1.3048942E-1,3.834008E-1,1.0375143E-1,-1.2520941E-2,7.359957E-2,1.0820545E-2,1.9130602E-1,6.262984E-1,-3.9661226E-1,1.993928E-1,-2.4163729E-4,1.945692E-2,-6.532978E-2,-9.945528E-5,6.975367E-2,9.217927E-3],"categories":[],"categories_nodes":[],"categories_segments":[],"categories_sizes":[],"default_left":[0,0,0,0,0,0,0,0,0,0,0,0,0,0,0,0,0,0,0,0,0,0,0,0,0,0,0,0,0,0,0,0,0,0,0,0,0,0,0,0,0,0,0,0,0,0,0,0,0,0,0,0,0,0,0,0,0,0,0,0,0,0,0,0,0,0,0,0,0,0,0],"id":16,"left_children":[1,3,5,7,9,11,13,15,17,-1,-1,19,21,23,25,27,29,31,33,35,37,39,-1,-1,41,43,45,47,49,51,53,55,-1,-1,-1,57,-1,59,-1,61,63,-1,-1,65,67,-1,69,-1,-1,-1,-1,-1,-1,-1,-1,-1,-1,-1,-1,-1,-1,-1,-1,-1,-1,-1,-1,-1,-1,-1,-1],"loss_changes":[1.322762E1,3.4378334E1,1.7243996E1,6.265512E1,2.2800484E0,4.981421E1,4.7700092E1,3.0293652E1,5.1779686E1,0E0,0E0,1.447367E1,6.664041E1,1.6697964E1,8.551742E0,1.6946262E1,5.021579E1,1.3283953E1,3.783647E1,6.0525387E1,3.2382225E1,6.517686E1,0E0,0E0,2.9773512E1,6.568697E0,2.6451012E1,2.7741915E1,6.0106125E0,6.0765217E1,2.493715E1,2.0775093E1,0E0,0E0,0E0,1.6365229E1,0E0,1.5475204E0,0E0,3.261078E1,4.103341E1,0E0,0E0,1.1917694E1,3.504531E1,0E0,9.680036E0,0E0,0E0,0E0,0E0,0E0,0E0,0E0,0E0,0E0,0E0,0E0,0E0,0E0,0E0,0E0,0E0,0E0,0E0,0E0,0E0,0E0,0E0,0E0,0E0],"parents":[2147483647,0,0,1,1,2,2,3,3,4,4,5,5,6,6,7,7,8,8,11,11,12,12,13,13,14,14,15,15,16,16,17,17,18,18,19,19,20,20,21,21,24,24,25,25,26,26,27,27,28,28,29,29,30,30,31,31,35,35,37,37,39,39,40,40,43,43,44,44,46,46],"right_children":[2,4,6,8,10,12,14,16,18,-1,-1,20,22,24,26,28,30,32,34,36,38,40,-1,-1,42,44,46,48,50,52,54,56,-1,-1,-1,58,-1,60,-1,62,64,-1,-1,66,68,-1,70,-1,-1,-1,-1,-1,-1,-1,-1,-1,-1,-1,-1,-1,-1,-1,-1,-1,-1,-1,-1,-1,-1,-1,-1],"split_conditions":[1.65985E4,9E0,1.83195E4,8E0,1.255E2,5E0,1.8673E4,4E0,1.52505E4,3.600071E-2,-3.5326976E-1,1.797675E4,1.797675E4,3E0,1E1,1.52505E4,1.3594E4,1.22555E4,1.59265E4,4E0,4E0,7E0,-3.894656E-1,-3.1498575E-1,4E0,4.65475E5,2.0451E4,1.4249E4,1.6271E4,5E0,5E0,1.193E4,-3.506283E-1,6.9231266E-1,-3.4687558E-1,1.6949E4,-3.5616517E-1,3E0,4.658195E-1,1.7302E4,1E1,5.365938E-3,-3.7651148E-1,4.00141E5,4.969825E5,-4.1397104E-1,2.9802E4,-1.2784454E-2,6.714307E-2,-8.1212774E-2,-4.6151695E-3,-2.4073072E-1,6.60605E-2,-1.0303094E-1,-3.6031055E-1,-1.3048942E-1,3.834008E-1,1.0375143E-1,-1.2520941E-2,7.359957E-2,1.0820545E-2,1.9130602E-1,6.262984E-1,-3.9661226E-1,1.993928E-1,-2.4163729E-4,1.945692E-2,